/*
 * Copyright (c) 2022, Alliance for Open Media. All rights reserved
 *
 * This source code is subject to the terms of the BSD 3-Clause Clear License
 * and the Alliance for Open Media Patent License 1.0. If the BSD 3-Clause Clear
 * License was not distributed with this source code in the LICENSE file, you
 * can obtain it at aomedia.org/license/software-license/bsd-3-c-c/.  If the
 * Alliance for Open Media Patent License 1.0 was not distributed with this
 * source code in the PATENTS file, you can obtain it at
 * aomedia.org/license/patent-license/.
 */

#ifndef AVM_AV2_ENCODER_ERP_MODELS_H_
#define AVM_AV2_ENCODER_ERP_MODELS_H_

#include "config/avm_config.h"
#include "av2/encoder/ml.h"

#define NUM_HIDDEN_LAYERS_BLOCK_8X16 1
#define NUM_FEATURES_BLOCK_8X16 19
#define NUM_LAYER_0_UNITS_BLOCK_8X16 32
#define NUM_LOGITS_BLOCK_8X16 3

static const float av2_erp_rect_dnn_layer_0_kernel_BLOCK_8X16[] = {
  -5.265345f,      3.8984804f,      0.12618577f,     0.18102245f,
  0.44588035f,     -0.03277174f,    0.0072774366f,   0.059204906f,
  -0.0026648645f,  -0.074082844f,   0.024687385f,    -0.00063447305f,
  0.008296847f,    -0.010629827f,   0.51402366f,     0.0101289395f,
  -8.337671f,      -0.09409258f,    -1.0610453f,     -6.8999376f,
  3.4307384f,      -0.14111793f,    -0.036665544f,   -0.040603045f,
  -0.26586428f,    -0.27231523f,    0.15362707f,     -0.19912177f,
  -0.18823534f,    -0.022746112f,   -8.0317545f,     -0.13412498f,
  -0.004224565f,   -0.21770778f,    -0.050145358f,   -0.14610852f,
  0.0006008148f,   0.043696538f,    5.7136297f,      -4.7486644f,
  -0.007380422f,   -1.4179479f,     1.0350178f,      -0.6475074f,
  0.21637043f,     -0.019678533f,   -0.11775768f,    -0.38329852f,
  -0.1821019f,     -0.31274325f,    -0.21913591f,    -0.19929975f,
  -0.105638444f,   -0.18115854f,    0.06197797f,     -0.2866161f,
  -0.7089762f,     -7.199914f,      4.953551f,       -0.29354277f,
  -0.09312399f,    0.66209626f,     -2.272013f,      -5.8586884f,
  0.1935319f,      -0.103110835f,   -0.7220461f,     -0.19304079f,
  -0.6564877f,     0.1912593f,      0.02132025f,     0.21849208f,
  0.018145915f,    0.23760651f,     0.29228362f,     -0.6426344f,
  4.140425f,       -9.34534f,       -0.3994797f,     -3.242187f,
  -0.38766915f,    -3.145998f,      0.7668234f,      -0.019276112f,
  -1.8474928f,     0.49518168f,     -2.0538301f,     0.47748467f,
  -0.05999005f,    -2.5716414f,     0.6783149f,      -1.339593f,
  0.3265379f,      -0.27871636f,    -0.71407706f,    -15.703152f,
  3.3349955f,      1.0193887f,      -0.6495769f,     -2.7297757f,
  0.02054851f,     0.62343526f,     0.3259692f,      0.038056582f,
  -0.57992005f,    0.096037365f,    -0.5246082f,     -0.1777739f,
  0.03023075f,     0.0347274f,      0.033965476f,    0.009490857f,
  -0.18232764f,    2.8984969f,      -18.508488f,     -0.9008228f,
  -0.4403183f,     0.18541485f,     -0.6462507f,     -0.01642061f,
  0.37321538f,     0.33678076f,     0.020221662f,    0.017597934f,
  0.0057343654f,   0.022086883f,    -0.03817877f,    -0.0016810697f,
  -0.02176085f,    -0.004223573f,   -0.013022034f,   -0.037909806f,
  0.7881896f,      -2.2617362f,     1.1494079f,      -0.9545986f,
  -0.72800076f,    -1.9586345f,     0.024391744f,    0.29106307f,
  0.13850617f,     0.0021861051f,   -0.058333848f,   -0.03961767f,
  0.013079718f,    0.19648328f,     -0.01894837f,    -1.2698183f,
  0.045902785f,    -1.3244644f,     0.043412566f,    1.6759633f,
  -19.40578f,      0.16759804f,     -0.072985835f,   -0.0016736303f,
  -0.07934158f,    -0.0062393495f,  0.091039345f,    0.31364664f,
  0.0022894912f,   -0.030956443f,   0.002757884f,    -0.03168814f,
  -0.20854041f,    -0.00074848253f, 0.0009653917f,   0.000754678f,
  -0.0040342454f,  0.32054844f,     0.07963768f,     2.8118064f,
  -1.614007f,      0.33596286f,     0.06744152f,     0.23206085f,
  0.0063812286f,   0.045193072f,    0.0016359389f,   0.0046156966f,
  5.2252016f,      0.030923467f,    0.035049878f,    -0.22180021f,
  0.0015647527f,   -0.0029992175f,  -0.00745398f,    0.07209738f,
  0.3023506f,      -0.22837272f,    5.2032433f,      -13.809328f,
  -0.0037183126f,  0.18771236f,     -0.16717996f,    -0.01839254f,
  0.3133714f,      0.17102632f,     0.012349339f,    -0.22351727f,
  0.0091628395f,   -0.25989425f,    -0.040377438f,   0.0034272703f,
  0.046686485f,    0.010174432f,    -0.008838481f,   -0.017499924f,
  0.16233733f,     4.79752f,        -13.194023f,     -0.39298698f,
  -0.55927557f,    -0.32487926f,    -0.01935417f,    1.1592166f,
  -0.20222665f,    0.077827424f,    -0.42498755f,    0.11484836f,
  -0.4208564f,     0.3384597f,      0.04312678f,     -0.011379799f,
  0.007895912f,    0.017364584f,    0.08996531f,     0.26464972f,
  -2.0808146f,     1.335037f,       -0.022598067f,   0.05293458f,
  0.22699656f,     -0.031378224f,   -0.19655399f,    0.07079139f,
  -0.05326735f,    -0.046430998f,   -0.08804408f,    0.0142234145f,
  -0.180671f,      -0.059637662f,   -0.10105628f,    -0.0057002823f,
  -10.756198f,     -0.3320197f,     -0.24112095f,    -0.016168904f,
  0.096336976f,    -0.027401095f,   -0.024217779f,   -0.015206951f,
  -0.0013409561f,  -0.015983863f,   0.2813348f,      0.025599489f,
  -1.6914284f,     -0.0016817085f,  1.5399659f,      -0.23662111f,
  0.0019176212f,   0.04480939f,     0.0013033058f,   0.00860164f,
  0.21076337f,     0.014288783f,    2.4285183f,      -4.574993f,
  -0.81434745f,    0.30096513f,     -0.7732727f,     -0.83236134f,
  1.2790331f,      -0.23294353f,    -0.7016685f,     0.100167684f,
  -0.7009534f,     0.0007744099f,   0.3022255f,      -0.6288373f,
  0.23522852f,     -0.84340096f,    0.22157994f,     -0.14928716f,
  1.0742996f,      1.3863076f,      -2.298238f,      -3.5131361f,
  -0.85499644f,    2.2787037f,      0.0034667258f,   -0.04930151f,
  0.046621263f,    0.008304532f,    0.14778635f,     -0.0142985135f,
  0.14178096f,     0.07818353f,     0.006268666f,    0.036495946f,
  0.015581202f,    0.07896834f,     -0.119988054f,   -5.1834683f,
  7.9789257f,      -7.1296177f,     -0.048641402f,   -0.08909126f,
  0.8108111f,      0.002043265f,    -6.7483935f,     -0.24338269f,
  -0.0007639073f,  0.19584641f,     -0.0028901983f,  0.23556216f,
  -0.14522652f,    0.0022903145f,   0.017616004f,    0.0026486993f,
  -0.1260571f,     -0.10011332f,    1.8451793f,      -5.13001f,
  4.0391884f,      -0.031210952f,   0.08270651f,     0.07007865f,
  -0.017779572f,   -5.953095f,      -0.28146726f,    -0.046499427f,
  -1.326599f,      -0.041593127f,   -1.492757f,      0.2982684f,
  -0.025330152f,   -1.6354332f,     -0.046081815f,   -1.8867084f,
  0.17336693f,     -0.066167034f,   -5.07709f,       5.328205f,
  -0.032679044f,   -0.010668094f,   0.06329983f,     -0.002198309f,
  -0.046116985f,   0.183377f,       0.00049919717f,  0.045158155f,
  0.0023721333f,   0.010079588f,    0.17470172f,     0.006417519f,
  -11.776296f,     -0.0035586513f,  0.70939386f,     0.04210642f,
  -0.047132373f,   -4.107871f,      1.4888145f,      -0.47226626f,
  -0.08131376f,    -0.1601006f,     -8.838443f,      2.6953387f,
  -0.23522045f,    -6.433808f,      1.5425023f,      -7.4126163f,
  1.714132f,       -0.05281666f,    -5.14521f,       1.417061f,
  -5.262766f,      1.4248104f,      0.024151504f,    0.17349435f,
  1.9495432f,      -1.0754265f,     -0.09596281f,    0.03844809f,
  1.1565672f,      0.014870242f,    -0.23410352f,    0.27287677f,
  5.6939018e-05f,  1.1932766f,      -5.6123416e-05f, 0.06615159f,
  -0.3400949f,     -0.0013625439f,  0.23933147f,     -0.0008957271f,
  0.18657155f,     0.12028009f,     1.3882741f,      7.0342803f,
  -6.485765f,      -0.8925764f,     -2.0851014f,     0.067870006f,
  -0.02248297f,    0.010273009f,    -0.30687428f,    -0.0049267504f,
  0.0035195358f,   0.007754903f,    0.0198118f,      -0.32481667f,
  -0.07335207f,    0.06631309f,     0.012258146f,    -0.014623679f,
  0.23735008f,     0.21722887f,     3.713782f,       -2.2109385f,
  0.104757264f,    0.4609564f,      0.008264149f,    0.012710532f,
  -0.1472731f,     0.15402287f,     -0.008162845f,   4.8912106f,
  0.013091291f,    0.381426f,       -0.12742959f,    0.008702211f,
  0.07772164f,     2.7470775e-05f,  0.09617839f,     0.028623134f,
  0.63309544f,     -12.760151f,     4.8596663f,      0.26884028f,
  1.2636151f,      -1.6625432f,     0.018394858f,    -0.12955165f,
  0.26467666f,     0.003238534f,    0.26474476f,     0.073301904f,
  0.23803999f,     -0.1856849f,     0.04390843f,     -0.0070850514f,
  0.02706243f,     -0.10230933f,    0.3342509f,      1.2384926f,
  -0.414397f,      -0.07613248f,    -0.025005588f,   0.38392413f,
  -1.8591998f,     -0.020630952f,   -3.9341798f,     -0.123817995f,
  0.009248007f,    0.07927569f,     0.031890877f,    0.023987446f,
  0.16121504f,     0.011532811f,    -0.08134503f,    0.008241179f,
  -0.07354287f,    -0.14942887f,    0.77544904f,     0.17082737f,
  -4.192055f,      -0.028345507f,   0.276005f,       -1.4846612f,
  0.04463074f,     0.73434573f,     0.27463338f,     -0.009731114f,
  -4.121674f,      -0.013686804f,   -4.1946664f,     -0.33899796f,
  -0.00046944257f, -2.1286685f,     -0.009129828f,   -2.5628366f,
  0.316453f,       1.4331881f,      -5.4871626f,     5.9006786f,
  -0.04436583f,    -0.024792075f,   -0.035908535f,   -0.0021244043f,
  -0.021661498f,   -0.22123954f,    0.004450475f,    0.054689486f,
  0.0030645202f,   0.020357015f,    -0.13253736f,    0.0069856453f,
  -12.9223f,       -0.004187962f,   0.81665957f,     -0.23659953f,
  0.098815165f,    -4.511604f,      2.7589319f,      -0.14599319f,
  -0.04299371f,    -0.057983477f,   -0.42073694f,    -0.22086933f,
  0.23664835f,     -0.013420136f,   -8.84372f,       -0.18308204f,
  -0.30970383f,    0.32540575f,     -0.18683997f,    -0.057159424f,
  -0.18408106f,    -0.11549283f,    -0.31803697f,    0.06562599f,
  -5.9861503f,     3.143364f,       -0.5097048f,     -0.08276528f,
  -0.42884362f,    -0.0153105045f,  0.013622604f,    -0.13619174f,
  -0.025646282f,   -0.024817467f,   -0.014957679f,   -8.502134f,
  -0.2810883f,     0.0068041706f,   -0.13813166f,    0.0018222262f,
  -0.10549441f,    -0.16224037f,    0.40515146f,     -12.426687f,
  5.484907f,       0.78738016f,     0.86501896f,     -0.123882554f,
  0.015636396f,    -0.049446363f,   0.30553147f,     0.024612473f,
  0.016179215f,    0.13516936f,     -0.030571887f,   0.31303427f,
  0.01760369f,     0.07052898f,     -0.0058659553f,  0.04174796f,
  0.2963902f,      0.21241689f,     -2.267156f,      -8.950276f,
  -0.06917865f,    -0.019715428f,   -0.16259569f,    -0.005846727f,
  0.11872782f,     0.11396307f,     0.0027128307f,   -3.4851031f,
  -0.00027890562f, -3.6933377f,     0.062430292f,    -0.00050728786f,
  0.09897709f,     -0.0013676072f,  0.08479852f,     0.1955221f,
  0.15534157f,     -3.7880182f,     2.835918f,       -0.53712296f,
  0.01282176f,     -0.5812711f,     -0.02519219f,    0.044845f,
  0.106230885f,    -0.015951587f,   -1.8939872f,     -0.024184642f,
  -1.7763292f,     0.09675571f,     -0.04772887f,    0.19146413f,
  -0.019067444f,   0.12798645f,     0.057648063f,    0.6933791f
};

static const float av2_erp_rect_dnn_layer_0_bias_BLOCK_8X16[] = {
  -2.6312602f, -4.910441f,   -2.4008176f, -3.006079f,    -7.5237627f,
  -3.5329869f, -2.564794f,   0.22144695f, -4.658491f,    1.8989116f,
  -3.6034036f, -1.369984f,   -5.668405f,  -0.021684162f, 0.1932319f,
  -1.7463617f, -2.7105775f,  -6.1156006f, -4.968048f,    -3.6748497f,
  2.813999f,   0.044381395f, 3.4933105f,  -0.659944f,    -0.5401523f,
  -5.8594446f, -5.7991147f,  -5.0353866f, -3.062041f,    -3.678287f,
  -7.7463813f, 0.6774573f
};

static const float av2_erp_rect_logits_kernel_BLOCK_8X16[] = {
  -0.32119504f, -1.7573389f,   -0.46852377f, 0.45090386f,   -2.0769763f,
  -0.1924327f,  -0.2686251f,   0.09597415f,  -1.9706111f,   -0.24814595f,
  0.55375093f,  0.2928284f,    -0.85358155f, 0.28434688f,   0.30905014f,
  0.10168626f,  0.36594504f,   1.9683908f,   -1.5523498f,   0.8954824f,
  0.06475574f,  0.22533238f,   0.86938906f,  -0.14192912f,  0.3004729f,
  0.16872573f,  1.7021507f,    -1.8757198f,  0.30043924f,   -0.028303495f,
  1.8623848f,   -0.370146f,    -0.25862417f, 1.9962335f,    0.035831522f,
  -0.24917123f, 1.7968131f,    0.11207377f,  0.23388503f,   -0.091019474f,
  2.0858696f,   0.7868624f,    -0.83672667f, -0.07151317f,  -0.42335638f,
  0.51176465f,  0.10628032f,   -0.17721356f, 0.24620152f,   -1.914598f,
  -0.49119765f, -1.3256582f,   0.5124614f,   0.0033113167f, -0.34277442f,
  0.24871567f,  -0.037377954f, -0.36932844f, 0.76752824f,   2.1659818f,
  0.8612349f,   -0.41311625f,  -2.7277677f,  -0.04644058f,  0.19611917f,
  0.015919177f, -1.4532638f,   0.03191252f,  -0.3862343f,   0.09448452f,
  0.14377476f,  0.3824482f,    1.2526699f,   -0.020758376f, -0.7155903f,
  0.07077959f,  2.2745454f,    0.32155198f,  -0.16392317f,  -0.2982585f,
  -2.8195086f,  -0.5277515f,   3.4414287f,   -0.06083982f,  -1.0512779f,
  -0.35567406f, 0.9081772f,    0.05031854f,  -0.03397341f,  -0.09126321f,
  -2.6028981f,  -0.12023392f,  0.39001688f,  -0.2855783f,   -1.1027553f,
  -0.3545935f
};

static const float av2_erp_rect_logits_bias_BLOCK_8X16[] = { 0.48889303f,
                                                             0.47239408f,
                                                             -1.4752572f };

static const NN_CONFIG av2_erp_rect_nn_config_BLOCK_8X16 = {
  NUM_FEATURES_BLOCK_8X16,
  NUM_LOGITS_BLOCK_8X16,
  NUM_HIDDEN_LAYERS_BLOCK_8X16,
  {
      NUM_LAYER_0_UNITS_BLOCK_8X16,
  },
  {
      av2_erp_rect_dnn_layer_0_kernel_BLOCK_8X16,
      av2_erp_rect_logits_kernel_BLOCK_8X16,
  },
  {
      av2_erp_rect_dnn_layer_0_bias_BLOCK_8X16,
      av2_erp_rect_logits_bias_BLOCK_8X16,
  },
};

#undef NUM_HIDDEN_LAYERS_BLOCK_8X16
#undef NUM_FEATURES_BLOCK_8X16
#undef NUM_LAYER_0_UNITS_BLOCK_8X16
#undef NUM_LOGITS_BLOCK_8X16

#define NUM_HIDDEN_LAYERS_BLOCK_32X64 1
#define NUM_FEATURES_BLOCK_32X64 19
#define NUM_LAYER_0_UNITS_BLOCK_32X64 32
#define NUM_LOGITS_BLOCK_32X64 3

static const float av2_erp_rect_dnn_layer_0_kernel_BLOCK_32X64[] = {
  -5.371117f,      -0.96907455f,   0.8347811f,      0.4592908f,
  -0.20453018f,    -0.04886373f,   0.48860046f,     -0.06553495f,
  0.046067663f,    1.5544606f,     -0.031972535f,   1.4385275f,
  -0.092867225f,   0.004614664f,   -0.37991244f,    0.023867037f,
  -0.45860067f,    -0.2661887f,    0.24799362f,     2.8555849f,
  -2.0959733f,     0.11467799f,    -0.12836313f,    -3.8702948f,
  -0.00013620559f, -1.4262483f,    -0.24526706f,    -0.0077157537f,
  -0.29827473f,    -0.121396214f,  -0.13122362f,    -0.0896714f,
  0.015172308f,    -0.8027316f,    -0.009737181f,   -0.86638343f,
  0.06250125f,     2.1847174f,     -5.609375f,      -0.021044813f,
  0.020921778f,    0.08862171f,    0.07771141f,     -0.16978578f,
  0.08029208f,     -0.15350316f,   -0.008359627f,   0.022645414f,
  0.006471483f,    0.00412924f,    -0.31937614f,    -0.012144321f,
  0.013474575f,    -0.016965454f,  0.016401615f,    0.09363985f,
  -0.2829943f,     -0.66864085f,   1.1572573f,      -0.007956125f,
  -0.00033565811f, 0.037463635f,   -2.6432867f,     -0.5955645f,
  0.040816724f,    -2.3690586f,    1.2148438f,      -2.511441f,
  1.2851554f,      0.33814004f,    -2.21031f,       1.1914006f,
  -2.0292864f,     1.097656f,      -0.18189798f,    -0.27233794f,
  -4.7112308f,     -0.09093403f,   1.410521f,       -0.26072815f,
  0.30652434f,     0.05944467f,    0.50927794f,     0.23631313f,
  -0.29010484f,    0.14010683f,    -0.22812447f,    0.10713496f,
  0.14881644f,     -0.092467725f,  0.006989409f,    -0.14700688f,
  0.18085489f,     -0.1728519f,    -1.2017268f,     1.5956756f,
  -1.5213456f,     -2.1805172f,    -0.124073125f,   -1.6698816f,
  0.018533014f,    -0.7930867f,    -0.21213695f,    -0.020947918f,
  0.46225736f,     -0.01337477f,   -0.22974126f,    0.2439358f,
  -0.06577378f,    0.42680544f,    0.042333115f,    0.5938006f,
  -0.03129372f,    0.15505436f,    -6.170827f,      0.49448296f,
  -0.7363524f,     -0.37079075f,   -0.5410482f,     -0.01772532f,
  -0.15027739f,    -0.066735834f,  0.012433168f,    -0.13512336f,
  0.023266919f,    -0.12913711f,   -0.093993634f,   -0.0071693733f,
  -0.033833925f,   0.039660454f,   0.013082757f,    0.065175444f,
  0.23020712f,     2.990131f,      -2.7087579f,     -0.08210739f,
  -0.0017131314f,  0.40575582f,    0.018184887f,    -2.7411447f,
  0.13869458f,     0.007624331f,   -0.29047066f,    -0.020880144f,
  -0.3153479f,     -0.043793887f,  0.008772626f,    0.15231204f,
  -0.014786845f,   -0.009430384f,  0.11439973f,     1.8243006f,
  -2.3621316f,     2.351265f,      0.01359812f,     0.021913853f,
  0.059572775f,    -1.7461349f,    -2.9300625f,     0.08658555f,
  -0.012968286f,   -0.13231094f,   -0.118015505f,   -0.13535042f,
  -0.08290213f,    -0.006309343f,  -0.37333074f,    0.0025406515f,
  -0.34398377f,    -0.25537077f,   -0.0638354f,     -0.27376127f,
  2.9953976f,      -0.0004511675f, 0.0029072033f,   -0.14595151f,
  -0.1627878f,     0.15772583f,    0.038073123f,    -0.14445823f,
  0.19231902f,     -0.30383173f,   0.10220696f,     -0.15899833f,
  -3.5753314f,     -6.9367275f,    0.00012474993f,  1.6757805f,
  0.15017289f,     0.18570232f,    1.440592f,       0.98523694f,
  -2.545694f,      -2.148405f,     -0.60097426f,    -0.3639666f,
  -0.003874621f,   0.1759344f,     -0.14409626f,    -2.983399f,
  -0.058404274f,   -2.0859334f,    0.20119765f,     -0.43331838f,
  0.49864888f,     -0.4090009f,    0.31170702f,     0.33234558f,
  0.13775317f,     1.2772086f,     -1.1210947f,     0.99216735f,
  -1.0416957f,     -0.54218596f,   0.035481118f,    -0.28784278f,
  0.10984257f,     -0.25608325f,   0.09209375f,     -0.11893306f,
  0.03211581f,     -0.0016049445f, -0.22836605f,    0.033482764f,
  -0.3678894f,     0.36198536f,    -0.2482054f,     -1.9712113f,
  -0.61977166f,    -1.9390763f,    -0.018237963f,   0.040695608f,
  0.09699655f,     0.016221538f,   -0.3905778f,     -0.066402435f,
  -0.0028136647f,  -0.81640977f,   -0.005410325f,   -1.1125697f,
  -0.3108689f,     -0.010851382f,  -1.2091055f,     -0.009384525f,
  -1.2309693f,     0.27890715f,    -0.18698424f,    -0.366793f,
  0.5702593f,      0.09990333f,    0.6728876f,      -0.5100305f,
  0.020277262f,    -0.37235868f,   -0.30120787f,    -0.15284528f,
  1.6282274f,      -0.08185226f,   2.4761884f,      -0.10766852f,
  0.06610164f,     -1.2656391f,    0.025145704f,    -1.7597498f,
  -0.10843919f,    0.24753639f,    0.3619444f,      -1.0722759f,
  -0.08943749f,    -0.09128642f,   -0.2778904f,     -1.7279505f,
  -1.4114145f,     0.04149729f,    -0.015805403f,   -0.29362485f,
  -0.25292876f,    -0.4914804f,    -0.2316679f,     -1.1842226f,
  -0.7656165f,     -0.075696506f,  -1.0578557f,     0.07863256f,
  0.28342327f,     -0.15703693f,   0.76695085f,     -0.052201487f,
  0.00026045786f,  0.051827114f,   -3.4790635f,     -3.3330076f,
  -0.17123231f,    -0.71223843f,   1.4804702f,      -0.9317669f,
  1.6453136f,      -0.069012344f,  -0.89458114f,    1.2528113f,
  -1.008223f,      1.6679696f,     0.124127835f,    -0.11010858f,
  -0.17496365f,    0.972125f,      -0.034340635f,   0.010031653f,
  -0.22359022f,    -3.9921784f,    -4.96756f,       0.018605381f,
  -0.90978026f,    2.0244548f,     -1.1520795f,     2.226433f,
  0.26959953f,     -1.1275595f,    1.6523446f,      -1.2195082f,
  2.2439072f,      -0.20343958f,   0.22578807f,     -0.3838218f,
  0.56186783f,     -0.034901407f,  0.018705996f,    0.049789812f,
  -0.56509227f,    0.2349725f,     0.10337925f,     -1.9715288f,
  -3.820313f,      -0.40443513f,   0.20575362f,     0.27560386f,
  -0.5370977f,     0.32108402f,    -0.3411396f,     0.20321578f,
  -0.18322425f,    -0.083740056f,  -6.417698f,      0.10308297f,
  0.0056429747f,   0.008453811f,   0.0074428595f,   -0.0011297283f,
  0.0035018877f,   -0.25451252f,   -0.0020949035f,  0.0021531205f,
  -0.0072716544f,  0.0049691866f,  0.00943917f,     -0.0091500925f,
  0.005254229f,    -0.0012290903f, 0.00083362253f,  0.1814448f,
  -0.0131976735f,  -0.25842142f,   2.367187f,       -0.008416658f,
  -0.002106101f,   -0.0012932159f, -0.16664597f,    0.13642925f,
  -0.07996839f,    -0.11058123f,   0.14899379f,     -0.23388654f,
  0.0942011f,      0.052684188f,   -2.782934f,      -5.387836f,
  -0.0012947776f,  1.2228476f,     0.20669594f,     0.0004177378f,
  0.82544893f,     -5.059398f,     -0.014257705f,   0.02580769f,
  -0.0018126107f,  -0.053482216f,  0.20451875f,     0.31117305f,
  -0.010482582f,   -0.018725201f,  -0.008209541f,   -0.0504206f,
  0.28040478f,     -0.007548268f,  -0.011835331f,   -0.0065438882f,
  0.009656831f,    -0.3366295f,    -0.09047804f,    1.29821f,
  -4.522855f,      -0.15617172f,   0.31932417f,     -1.147794f,
  -0.09936768f,    -0.56378496f,   0.22959706f,     0.04151991f,
  -0.017224485f,   0.036852725f,   0.17178215f,     0.09721932f,
  0.04505044f,     -0.47402582f,   0.07179934f,     -0.06616395f,
  -0.04376903f,    0.5751197f,     -0.018067397f,   -0.49708176f,
  1.0898322f,      1.1289439f,     -1.7757716f,     -0.016881939f,
  -0.48507088f,    0.18112174f,    0.021755794f,    0.11874964f,
  -0.4199409f,     -1.1885804f,    -0.27973595f,    -0.33049846f,
  1.3140789f,      -0.523087f,     1.8834972f,      -0.05179748f,
  1.7539798f,      0.84536684f,    -4.703824f,      0.0025519154f,
  0.03894151f,     0.13619186f,    -0.95508486f,    3.1171067f,
  0.27227738f,     -0.7015405f,    0.4646854f,      -0.15486008f,
  -0.05669216f,    -0.19263628f,   -0.51106507f,    0.36656472f,
  -0.18166843f,    -0.06979079f,   -0.28154647f,    -0.16191335f,
  -0.19238025f,    0.38539097f,    0.007181678f,    0.034058485f,
  0.065629035f,    -0.84169686f,   0.4380155f,      -0.030761212f,
  -0.27174413f,    0.12944941f,    -2.4899287f,     -3.751467f,
  -0.22087824f,    -0.4257229f,    0.2649149f,      -0.40723833f,
  0.28469035f,     -0.18247083f,   -0.11451827f,    -1.4027928f,
  1.4479277f,      0.17087308f,    -0.045802068f,   0.12850465f,
  -1.335163f,      -3.5962281f,    -0.33070838f,    -0.14905822f,
  -0.036285877f,   -0.06773985f,   -0.17955177f,    -0.0045959353f,
  -0.24820465f,    0.23814951f,    -0.021874776f,   0.03316927f,
  0.34101233f,     -0.22442721f,   -1.2116463f,     2.6889722f,
  0.020681156f,    0.020664046f,   0.06380748f,     -0.9574975f,
  0.5957009f,      0.27188715f,    -0.19619234f,    0.09805327f,
  -0.06556305f,    0.0926267f,     -0.053647935f,   -0.15043457f,
  -1.5794234f,     -2.4747093f,    -2.9993315f,     -0.24743833f,
  -0.32330456f,    0.0024579067f,  0.07457131f,     0.061367992f,
  0.5985458f,      1.7017993f,     -0.00019306982f, -0.448221f,
  -0.004616797f,   -0.0073581366f, 0.13018852f,     -0.0016040497f,
  0.56142044f,     0.10899994f,    -0.008137514f,   -0.05878015f,
  -0.023685958f,   0.18434572f,    -0.22914532f,    1.0317137f,
  -6.334467f,      -0.13172567f,   -0.025322426f,   -0.0062294775f,
  0.05846249f,     -0.004544908f,  0.069777615f,    -0.24020115f,
  0.0022633248f,   0.01060649f,    0.0009002752f,   0.03152625f,
  -0.036643833f,   0.004509093f,   0.0036666216f,   0.005783166f,
  0.010322401f,    0.19910702f,    0.006133837f,    -2.360334f,
  1.3707887f,      0.44818148f,    0.3179273f,      -1.5140215f,
  -0.019648721f,   0.70899546f,    -0.32257167f,    -0.07521355f,
  -1.0053275f,     -0.045493484f,  -0.15349172f,    0.28405914f,
  -0.015990803f,   -0.06454162f,   -0.018301424f,   -0.33011004f,
  -0.25630164f,    1.5945975f,     -0.0938246f,     -0.3598259f,
  0.5179009f,      0.41206962f,    -1.2843268f,     -0.05391023f,
  0.24932465f,     0.2841572f,     -0.031448003f,   0.2639774f,
  -0.017735636f,   -3.127166f,     -0.20343614f,    -0.22171617f,
  1.2538921f,      -0.085109755f,  1.7121133f,      -0.31040326f,
  1.122661f,       0.00037386498f, 0.00906617f,     -0.04311697f,
  -0.014677393f,   0.0033522218f,  -1.2567238f,     0.7840101f,
  -0.12752879f,    -2.75993f,      1.4179686f,      -2.9695954f,
  1.5351088f,      0.29295394f,    -2.9296954f,     1.5845063f,
  -2.6563022f,     1.4023098f,     0.037913978f,    -0.014855503f
};

static const float av2_erp_rect_dnn_layer_0_bias_BLOCK_32X64[] = {
  -0.58607376f, -4.99718f,    -1.7632886f,  -1.6591414f,  -0.73040724f,
  0.9742823f,   -0.07886549f, -0.35734823f, -2.4606304f,  -2.7640889f,
  -2.4405363f,  -0.33232787f, -3.2804868f,  0.7965512f,   -3.6777797f,
  -0.7290327f,  -1.3224413f,  -2.3773525f,  -2.2412143f,  -1.9779967f,
  -1.5278711f,  0.53701687f,  -0.76160073f, -0.74531597f, -2.428377f,
  -1.5453328f,  -1.8712286f,  2.6071146f,   -2.1331208f,  1.3625717f,
  0.31037304f,  -0.74650484f
};

static const float av2_erp_rect_logits_kernel_BLOCK_32X64[] = {
  -0.033033006f, -1.3074838f,  -2.6604679f,   9.298506f,     -0.3858231f,
  0.076386906f,  -0.41698787f, 0.34741387f,   8.850649f,     2.7890859f,
  -0.3291666f,   0.5188644f,   2.8574216f,    -0.29045573f,  9.457654f,
  2.2877297f,    -1.7020179f,  -3.9536316f,   -18.558605f,   -3.5981493f,
  2.2231941f,    0.54968137f,  0.62687695f,   -0.06262685f,  -3.1179862f,
  0.7972798f,    -0.98100865f, 0.18798758f,   -2.9176204f,   -0.21453504f,
  -0.008591782f, 9.931401f,    0.28746647f,   -0.95109886f,  2.3901863f,
  -7.373182f,    0.3108997f,   -0.35058564f,  0.40090114f,   0.11565199f,
  -11.270863f,   -1.0238303f,  0.31511927f,   -0.29693553f,  -3.7405589f,
  -0.47167978f,  -6.923615f,   -1.9551283f,   1.3446591f,    4.4322042f,
  18.420095f,    1.4426053f,   -1.8972156f,   -0.22022544f,  0.2810394f,
  -0.64648336f,  4.2690897f,   -1.0041468f,   -0.035749532f, 0.122347906f,
  2.8921623f,    0.34859148f,  0.4169395f,    -8.743427f,    -0.11112452f,
  2.0857022f,    1.1218355f,   -6.4306912f,   0.25710824f,   -0.10081941f,
  0.038215965f,  -2.5750659f,  2.3068907f,    -2.3828194f,   -0.08612043f,
  -0.11968383f,  1.5917403f,   -0.006917711f, -3.254597f,    -1.2850966f,
  0.90253353f,   0.15511541f,  -1.1592054f,   3.4140968f,    0.23780356f,
  0.059745677f,  0.955096f,    -0.37017977f,  -1.3694608f,   -0.37849224f,
  1.0433915f,    -0.79653853f, 0.13892223f,   0.04784784f,   -0.1634549f,
  -4.779596f
};

static const float av2_erp_rect_logits_bias_BLOCK_32X64[] = { 0.2503071f,
                                                              0.53325564f,
                                                              -0.84713113f };

static const NN_CONFIG av2_erp_rect_nn_config_BLOCK_32X64 = {
  NUM_FEATURES_BLOCK_32X64,
  NUM_LOGITS_BLOCK_32X64,
  NUM_HIDDEN_LAYERS_BLOCK_32X64,
  {
      NUM_LAYER_0_UNITS_BLOCK_32X64,
  },
  {
      av2_erp_rect_dnn_layer_0_kernel_BLOCK_32X64,
      av2_erp_rect_logits_kernel_BLOCK_32X64,
  },
  {
      av2_erp_rect_dnn_layer_0_bias_BLOCK_32X64,
      av2_erp_rect_logits_bias_BLOCK_32X64,
  },
};

#undef NUM_HIDDEN_LAYERS_BLOCK_32X64
#undef NUM_FEATURES_BLOCK_32X64
#undef NUM_LAYER_0_UNITS_BLOCK_32X64
#undef NUM_LOGITS_BLOCK_32X64

#define NUM_HIDDEN_LAYERS_BLOCK_64X128 1
#define NUM_FEATURES_BLOCK_64X128 19
#define NUM_LAYER_0_UNITS_BLOCK_64X128 32
#define NUM_LOGITS_BLOCK_64X128 3

static const float av2_erp_rect_dnn_layer_0_kernel_BLOCK_64X128[] = {
  0.24966796f,    -2.8906717f,    -0.0560478f,    -0.010548264f,
  0.2160677f,     -0.052934002f,  -1.5258942f,    0.09361026f,
  0.031232174f,   -1.0356104f,    0.028667009f,   -1.2067556f,
  0.10620931f,    0.11515054f,    0.3366575f,     -0.059659183f,
  -0.046680868f,  0.009884626f,   -0.25558364f,   0.84813946f,
  -4.1241574f,    0.4674649f,     -0.30258918f,   -0.31721357f,
  0.660183f,      1.5519073f,     0.32976362f,    0.13122648f,
  0.43786338f,    0.6811722f,     0.09213791f,    -0.28213462f,
  -0.09835765f,   -0.16599376f,   0.10675377f,    0.30481938f,
  0.19083515f,    0.21625665f,    -1.5795426f,    2.0469103f,
  -1.7258482f,    -0.689833f,     0.2945501f,     -0.14017932f,
  -0.7766986f,    -0.2775242f,    -0.5998772f,    -0.23502783f,
  -0.022170277f,  0.26734388f,    0.2693263f,     0.21999744f,
  0.25999942f,    -0.037144303f,  -0.32857344f,   0.13415664f,
  -0.006677091f,  -0.04911257f,   -0.6813452f,    -1.0241491f,
  -0.4851327f,    -0.15315685f,   -0.24920803f,   0.2400495f,
  -0.0540587f,    0.18638112f,    1.8336004f,     -1.868683f,
  1.0008477f,     -0.287692f,     -0.25406224f,   -0.083369166f,
  0.046093643f,   0.27085558f,    0.28944597f,    0.14881742f,
  1.7205296f,     1.2978461f,     -0.1797056f,    -0.19716555f,
  0.08497372f,    -0.29834136f,   0.16492568f,    0.07846674f,
  -1.3984451f,    -2.1563463f,    -0.11775294f,   0.06988074f,
  -0.21424696f,   -0.097353846f,  0.20492879f,    -0.30974218f,
  -0.18772893f,   -0.052976638f,  0.13807261f,    0.17691688f,
  -2.7852893f,    0.12162834f,    0.10248848f,    0.06675497f,
  0.16701837f,    -0.10284423f,   0.08347452f,    0.06652994f,
  -1.7587099f,    -0.04546591f,   -1.5013995f,    0.15713915f,
  0.26440063f,    -0.13775481f,   -0.038341433f,  -0.048458874f,
  -0.31197542f,   0.118869424f,   -1.8040099f,    1.8660002f,
  0.59076655f,    0.41049728f,    0.25806358f,    0.7716198f,
  1.0530541f,     -0.3400756f,    -1.699787f,     0.4799857f,
  -0.54449534f,   0.251459f,      -0.33685598f,   0.094343066f,
  -0.22091603f,   0.10808885f,    -0.04783997f,   0.0833022f,
  0.30019292f,    -0.6567397f,    1.5899193f,     -2.0661547f,
  -1.0860784f,    0.33097872f,    0.39849237f,    -0.103754215f,
  0.15793368f,    0.31231347f,    -0.5043199f,    0.37450358f,
  -0.45241773f,   0.06489456f,    -0.29231232f,   -0.11271015f,
  -0.0501765f,    -0.19301605f,   -0.10500832f,   0.104496896f,
  -0.4002994f,    0.06198782f,    1.4931574f,     -2.7483234f,
  0.22857854f,    -0.012172072f,  0.44232416f,    -0.04033205f,
  -0.036382116f,  -0.005371136f,  0.44134545f,    -0.20294309f,
  -0.06317437f,   -0.010681778f,  0.06392804f,    -0.29550958f,
  0.29392037f,    -0.107904285f,  0.11481434f,    0.89620703f,
  -0.058004048f,  0.94293463f,    0.757699f,      0.00025072694f,
  0.60191655f,    -3.9296224f,    0.19626454f,    0.04400601f,
  1.6421096f,     0.06796535f,    1.4467901f,     0.34212676f,
  -0.114157856f,  -0.16704403f,   -0.07116765f,   -0.0066639185f,
  0.31865284f,    -0.11916824f,   0.72028565f,    0.64262193f,
  -0.1283707f,    -0.2445763f,    0.19282475f,    0.65727717f,
  0.11002697f,    -0.2524914f,    -1.2668353f,    -2.1546936f,
  -0.86718076f,   1.0167255f,     0.15957633f,    0.00087222457f,
  -0.107695505f,  -0.22985384f,   -0.074872464f,  0.15496844f,
  0.17656073f,    0.07972235f,    -0.5790092f,    0.07876351f,
  -0.03914779f,   0.30279472f,    -0.51790285f,   -1.2018747f,
  -0.11212307f,   -0.20937586f,   -0.29945108f,   -0.1689323f,
  -0.6083747f,    -0.16672233f,   -0.06902811f,   0.2040641f,
  -0.30196863f,   -0.19411619f,   0.19156685f,    0.054415494f,
  -0.0012628667f, 0.33627766f,    -0.09548811f,   -0.053966768f,
  -0.01581648f,   -0.86834383f,   0.5827662f,     0.22247002f,
  -2.5772083f,    -2.957392f,     -0.73291683f,   0.3271648f,
  -0.1572348f,    0.04182127f,    -0.27558136f,   0.2031509f,
  0.13370392f,    -0.30862117f,   0.07870069f,    -0.10082883f,
  0.7234617f,     0.014802218f,   0.030169915f,   -0.27820623f,
  -0.9166255f,    0.7740319f,     -0.19288938f,   -0.9360789f,
  0.3453188f,     -2.8780022f,    -2.6639519f,    -0.31752014f,
  0.28924587f,    -0.1635102f,    -0.31751907f,   0.0035000443f,
  0.06255287f,    0.20855871f,    -2.784674f,     0.063523285f,
  -0.85600483f,   -0.67386603f,   -0.16040276f,   0.82366353f,
  1.4380074f,     -0.08839822f,   -0.0047674966f, -0.92459637f,
  0.73498446f,    -0.98065436f,   -0.24366653f,   -0.09803881f,
  0.2670181f,     0.12077385f,    -0.29014435f,   0.16439775f,
  -0.3011827f,    -1.3610739f,    1.1471795f,     -1.6396843f,
  -1.6217847f,    -0.10397385f,   0.49301866f,    1.896743f,
  0.112704664f,   -0.6954517f,    -0.79982203f,   -1.3547475f,
  -0.24581973f,   -0.24757603f,   -0.26065135f,   -0.027674288f,
  -0.31105077f,   0.00080403686f, 0.05441737f,    0.12769356f,
  0.30151257f,    -4.4298453f,    -0.60058767f,   -0.44572714f,
  0.31288013f,    0.29213408f,    0.16498697f,    -0.20092723f,
  -0.3292908f,    0.347705f,      -0.06249395f,   -0.15547468f,
  -0.12749599f,   0.2862976f,     -0.20740837f,   0.022298932f,
  -0.24568176f,   0.21402737f,    0.21622989f,    0.101932675f,
  1.4401493f,     0.13785133f,    0.084936865f,   0.06341562f,
  -2.833153f,     -1.4715496f,    -0.12025693f,   -2.689458f,
  1.7221632f,     -2.1368673f,    1.3250588f,     0.26423654f,
  0.024297386f,   -0.31326473f,   0.17479977f,    0.11725107f,
  0.27246425f,    -0.13330068f,   -0.58297986f,   1.8438203f,
  0.020073397f,   0.010758068f,   -0.34007978f,   -3.0065918f,
  -2.6572936f,    0.20684972f,    -0.82141286f,   0.610997f,
  -0.57738966f,   0.29879224f,    -0.07358906f,   -0.28992045f,
  0.26651028f,    0.00095775723f, -0.023211718f,  -0.32956883f,
  0.023360074f,   0.29808974f,    -0.9930545f,    -1.4451059f,
  -0.89230657f,   0.22870252f,    1.047345f,      -1.0637376f,
  0.3332518f,     0.1993693f,     -0.0007383174f, -0.108890824f,
  2.7636712f,     0.26612392f,    -0.024119616f,  -0.19322097f,
  0.051696002f,   0.0382922f,     0.27937254f,    0.33765706f,
  -0.13237107f,   3.4008589f,     -0.11038416f,   -0.06660635f,
  0.21700308f,    -1.9279867f,    0.28820252f,    -0.057493895f,
  -2.1978102f,    -1.9784427f,    -1.6605431f,    -2.1644182f,
  0.25807098f,    0.18342158f,    -0.09965284f,   -0.1150412f,
  0.20892379f,    0.29865178f,    0.17118111f,    0.5727676f,
  -5.258441f,     -0.18328218f,   -0.14141181f,   0.2760159f,
  0.011181843f,   0.19229783f,    -0.28398973f,   -0.057835925f,
  -0.13472128f,   0.012324468f,   0.07852992f,    -0.2873228f,
  0.23788252f,    -0.16381598f,   0.18352559f,    -0.11210288f,
  0.119690806f,   -0.23350109f,   -0.0077611743f, 0.0022246717f,
  -0.011053259f,  -0.0024489565f, -0.27185035f,   -2.167816f,
  1.5748657f,     -0.2268658f,    -3.207641f,     2.184671f,
  -3.262701f,     2.2278004f,     0.00747481f,    0.114411116f,
  -0.08285692f,   0.094843775f,   -0.11492427f,   -0.30848756f,
  0.19917843f,    -0.7704617f,    1.9435376f,     0.007326996f,
  0.010325434f,   0.26662067f,    -2.8729098f,    -2.1811357f,
  0.15899089f,    -0.8154054f,    -0.02001286f,   -0.5029365f,
  -0.2269476f,    -0.26556277f,   0.09944177f,    -0.29788485f,
  0.07205117f,    0.2541001f,     -0.166284f,     0.076093644f,
  -4.682819f,     -0.15367907f,   -0.0555876f,    -0.090738356f,
  0.020395726f,   0.11880138f,    -0.06337048f,   -0.20742382f,
  -0.09934536f,   0.118920006f,   -0.031626545f,  -0.0077195996f,
  -0.049694598f,  0.09390187f,    -0.29282048f,   0.3089535f,
  -0.19802381f,   -0.01556173f,   -0.26067704f,   0.048826005f,
  0.1881062f,     -1.3423904f,    -1.0813166f,    -0.08560455f,
  -0.6203223f,    -0.55256057f,   0.09745902f,    0.4232405f,
  3.0815458f,     -0.03248891f,   -1.5632632f,    0.28246883f,
  -0.042750984f,  -0.24177593f,   0.08795211f,    -0.093637004f,
  -0.03271672f,   0.1142509f,     -0.48144242f,   2.025507f,
  0.74260867f,    0.31420907f,    -0.0054398775f, -1.0643191f,
  -3.682688f,     0.30402622f,    0.012457711f,   0.121236496f,
  -0.030617855f,  -0.007515944f,  -0.25703347f,   -0.14809747f,
  0.11301443f,    -0.2561716f,    0.23521063f,    0.017913967f,
  -0.32377085f,   -4.890044f,     0.101129785f,   0.0022043805f,
  -0.005429313f,  0.34211984f,    -0.35533804f,   0.17522551f,
  -0.088998616f,  -0.3482728f,    0.25956532f,    -0.7081494f,
  0.51304895f,    0.16323105f,    -0.0178186f,    0.2493721f,
  0.25055102f,    0.26178995f,    0.2793459f,     0.14207157f,
  -4.314604f,     -0.31605175f,   0.042032246f,   0.06904891f,
  -0.31179005f,   -0.24236299f,   0.17883001f,    -0.32636014f,
  -0.6421699f,    0.4483549f,     0.048650566f,   -0.024664251f,
  0.2306563f,     -0.1371051f,    -0.0133906305f, 0.058321804f,
  -0.18342951f,   -0.20879792f,   -0.2290535f,    -5.033227f,
  -0.17063901f,   0.12844197f,    0.084556624f,   -0.33544195f,
  0.07432273f,    0.16908447f,    -0.27844575f,   0.053679742f,
  0.0017532307f,  0.005425522f,   0.05450529f,    0.0064047575f,
  -0.04262963f,   -0.023144662f,  -0.0033195019f, -0.1223429f,
  0.12327948f,    -0.21614893f,   1.3117024f,     -0.29935315f,
  -2.2430673f,    -1.176735f,     0.17184845f,    -1.054485f,
  -0.79567474f,   0.33618775f,    -1.3320849f,    0.9846144f,
  -0.07244819f,   1.1487714f,     0.2785308f,     0.0725258f,
  -0.18287456f,   0.0543665f,     0.22781572f,    -0.24651326f,
  0.07580587f,    -1.7956892f,    0.17148823f,    1.0115939f,
  -0.0035153152f, 0.2017881f,     -2.0849392f,    0.9815889f,
  0.09872973f,    0.02406026f,    0.46848562f,    -0.36488813f,
  0.2524734f,     0.014101535f,   0.24042532f,    0.2061778f,
  -0.031875163f,  0.31695542f,    -0.24293643f,   -0.1327325f
};

static const float av2_erp_rect_dnn_layer_0_bias_BLOCK_64X128[] = {
  -3.3414016f, 0.16510914f,  0.99619967f,  0.7189973f,  -0.25600958f,
  -2.3285253f, -1.012652f,   -0.44980487f, -2.1506116f, 0.44007516f,
  1.4736269f,  -2.4558623f,  -2.3185804f,  -2.0661328f, 0.4339462f,
  0.96999145f, -0.64626515f, -1.2057008f,  -1.9574955f, 0.093481705f,
  -2.5238016f, -2.1572862f,  -0.36218482f, -2.3725393f, -2.1377287f,
  -0.251479f,  -0.28597376f, -2.3925037f,  -2.2026362f, -1.4620861f,
  0.5793212f,  0.13717508f
};

static const float av2_erp_rect_logits_kernel_BLOCK_64X128[] = {
  7.8085527f,    0.043538433f,  0.11611421f,   0.30963245f,   -0.31686765f,
  1.2018313f,    0.46342596f,   0.43165016f,   -0.30855805f,  0.35961345f,
  0.5439842f,    3.8277209f,    -2.8121355f,   -2.4707043f,   0.12592714f,
  -0.003936532f, 0.6369712f,    1.0441109f,    4.8472166f,    -0.15254807f,
  -1.6480337f,   1.2623161f,    8.722141f,     15.49776f,     -3.7689865f,
  -0.17936684f,  0.65045345f,   -22.402025f,   -5.209965f,    -0.8088313f,
  0.38541892f,   0.039698754f,  -7.5674224f,   -0.55923086f,  0.71383977f,
  -0.16042182f,  0.315878f,     -0.55440766f,  0.0138694225f, -0.039702702f,
  0.3932284f,    -0.091092736f, -0.102177285f, -3.6718524f,   2.578445f,
  2.567977f,     0.6410875f,    0.5834508f,    -0.2644755f,   -1.3300992f,
  -5.1189003f,   0.38269943f,   1.2296177f,    -2.4271903f,   -8.566275f,
  -15.079148f,   4.0272164f,    0.40644017f,   -0.20751077f,  21.0981f,
  5.82066f,      1.2535694f,    -0.113270424f, 0.54082376f,   0.16612327f,
  -3.9932125f,   -2.2465844f,   -3.0306568f,   -3.0397668f,   -0.9616086f,
  -0.21922886f,  -1.841061f,    -3.1444776f,   -3.4682922f,   -3.5883718f,
  -0.3697138f,   -0.2192461f,   -1.0519891f,   -3.1376264f,   -3.4544468f,
  -1.813531f,    -0.9717501f,   -0.28962362f,  -2.6402507f,   -0.022807967f,
  -0.3363913f,   -1.5732751f,   -0.08893959f,  -0.0997443f,   -3.3372219f,
  -2.4413269f,   0.056163788f,  -0.022977136f, -1.0547229f,   -3.617272f,
  -1.0001038f
};

static const float av2_erp_rect_logits_bias_BLOCK_64X128[] = { 0.10748988f,
                                                               0.14715923f,
                                                               -4.197296f };

static const NN_CONFIG av2_erp_rect_nn_config_BLOCK_64X128 = {
  NUM_FEATURES_BLOCK_64X128,
  NUM_LOGITS_BLOCK_64X128,
  NUM_HIDDEN_LAYERS_BLOCK_64X128,
  {
      NUM_LAYER_0_UNITS_BLOCK_64X128,
  },
  {
      av2_erp_rect_dnn_layer_0_kernel_BLOCK_64X128,
      av2_erp_rect_logits_kernel_BLOCK_64X128,
  },
  {
      av2_erp_rect_dnn_layer_0_bias_BLOCK_64X128,
      av2_erp_rect_logits_bias_BLOCK_64X128,
  },
};

#undef NUM_HIDDEN_LAYERS_BLOCK_64X128
#undef NUM_FEATURES_BLOCK_64X128
#undef NUM_LAYER_0_UNITS_BLOCK_64X128
#undef NUM_LOGITS_BLOCK_64X128

#define NUM_HIDDEN_LAYERS_BLOCK_32X32 1
#define NUM_FEATURES_BLOCK_32X32 19
#define NUM_LAYER_0_UNITS_BLOCK_32X32 32
#define NUM_LOGITS_BLOCK_32X32 3

static const float av2_erp_rect_dnn_layer_0_kernel_BLOCK_32X32[] = {
  -2.6530454f,     0.96283233f,     0.15537345f,    2.9000745f,
  -3.4149916f,     -0.010144076f,   0.5959429f,     -0.05044031f,
  -0.0053365245f,  0.024194919f,    -0.031552747f,  -0.04832399f,
  0.3413488f,      -9.253723e-05f,  -0.5438001f,    0.015228005f,
  -0.44260368f,    -3.351548f,      -0.12042559f,   0.8028722f,
  -0.09285719f,    -0.2686278f,     -1.2746233f,    1.3763814f,
  -0.0068849674f,  0.031819392f,    -0.17906769f,   0.0055306503f,
  -0.27463284f,    0.016981443f,    -0.30774397f,   0.116953224f,
  -0.0025271806f,  0.07490602f,     -0.03384157f,   0.09152779f,
  0.028286852f,    0.8623873f,      -1.6284355f,    1.6570051f,
  -0.015687712f,   1.0019994f,      -0.035366237f,  -0.07980941f,
  0.101125486f,    -0.050448507f,   0.00048206307f, 0.082052276f,
  0.003386144f,    0.0143340565f,   -0.13505381f,   0.015527557f,
  -9.144884f,      0.011825976f,    0.1218263f,     -1.128908f,
  -1.9578288f,     -3.4503965f,     2.9919612f,     -0.0627632f,
  0.062363364f,    -0.2582385f,     -0.0034242878f, 0.019163515f,
  0.3024719f,      0.019530876f,    -0.015977422f,  0.04775891f,
  -0.05974944f,    -0.060314864f,   -0.023377432f,  0.2139847f,
  0.026600981f,    -8.969697f,      -0.38768893f,   -2.1484487f,
  5.432631f,       -2.8761294f,     0.64653313f,    -0.16472039f,
  -3.0543077f,     -0.048449405f,   -1.3456584f,    0.31651947f,
  -0.0021624549f,  -0.90028125f,    0.020198343f,   -1.121197f,
  0.15618029f,     4.4930996e-05f,  0.24315786f,    0.029375404f,
  0.104753345f,    -0.73600084f,    2.5553784f,     1.7538916f,
  -10.67807f,      0.002057476f,    0.23929632f,    -0.0009505382f,
  -0.00050105364f, 0.0076401923f,   0.08932465f,    -0.007095891f,
  0.009428586f,    -0.004423632f,   -0.0033726546f, -0.044011086f,
  -0.0057089827f,  0.023562748f,    -0.012702219f,  0.034304637f,
  -1.0135465f,     -0.603741f,      -1.5427577f,    2.0233192f,
  -0.19581404f,    1.0820782f,      0.110003605f,   -0.15160394f,
  0.10134236f,     0.21698967f,     0.0009703885f,  0.024998825f,
  0.00035994797f,  -7.8595243f,     -0.29505897f,   -0.44959158f,
  0.34294128f,     -0.34237477f,    0.2193364f,     -1.3185402f,
  -0.22244394f,    -1.5271728f,     1.0163172f,     0.18274976f,
  -0.5178687f,     -0.12725389f,    -1.4180721f,    -1.5912771f,
  -0.29524028f,    -0.54099023f,    0.055089448f,   -0.87200403f,
  -0.15672548f,    0.015967667f,    -0.5812317f,    -0.23410422f,
  -0.32178113f,    -0.1018002f,     0.6872271f,     0.18689358f,
  2.9499066f,      -10.705397f,     0.02277597f,    1.1209892f,
  0.7246038f,      -0.00068558514f, 0.14778282f,    0.23654285f,
  -0.016130894f,   -0.030417662f,   0.008784769f,   -0.09843406f,
  -0.13235974f,    0.022728931f,    0.022212202f,   -0.020410463f,
  -0.049211442f,   -1.1316223f,     -0.48739555f,   -1.5158029f,
  6.9052997f,      0.02473535f,     -0.024251448f,  -0.036136355f,
  -0.023772173f,   0.016539462f,    -0.071603686f,  -2.50786f,
  -15.114215f,     -0.15296997f,    0.3580183f,     0.2720966f,
  -0.084632404f,   -0.064505465f,   -0.11484996f,   -0.006221344f,
  0.011123746f,    0.042357523f,    -10.511599f,    -0.13632722f,
  -0.08336143f,    -1.7768077f,     -0.015838858f,  -1.7899958f,
  0.2693227f,      -0.12687334f,    -1.6011115f,    0.966214f,
  -1.863293f,      1.2689223f,      0.18443331f,    -1.7773491f,
  0.8758904f,      -2.1640413f,     1.0406542f,     0.98059607f,
  -0.25854927f,    -14.190179f,     -0.6300447f,    -0.19608188f,
  2.355838f,       -0.5605721f,     -0.0020579894f, -0.010626141f,
  -0.081098974f,   0.006239899f,    -0.09453835f,   0.015119574f,
  0.019131156f,    -0.21709894f,    0.015589042f,   -0.043254305f,
  -0.004165094f,   -0.030519016f,   -2.6171877f,    0.3387059f,
  -14.843712f,     0.1734601f,      -0.103962824f,  -2.8983488f,
  0.2107368f,      -0.01603047f,    0.38529488f,    -0.21122997f,
  -0.007119885f,   -0.054833695f,   0.008623559f,   -0.078447215f,
  0.32171956f,     -0.0034253632f,  0.076552376f,   0.023851864f,
  0.05066708f,     3.2133949f,      -0.23025759f,   -3.681966f,
  4.789927f,       -0.5761235f,     -1.4632261f,    -1.651705f,
  -2.866101f,      1.3611321f,      0.015842885f,   -2.3331504f,
  1.1446332f,      -2.3241537f,     1.1919161f,     0.31754687f,
  -2.185149f,      -3.778884f,      -3.2874134f,    -2.260782f,
  0.26597813f,     1.3320314f,      -0.3481564f,    1.7536192f,
  0.14192843f,     1.2773477f,      -0.23974746f,   -3.4858909f,
  -3.3180544f,     -0.23062918f,    -2.7973666f,    1.7599891f,
  -3.2231884f,     2.0856996f,      0.22031811f,    -3.3674374f,
  1.6108592f,      -3.554789f,      1.6980124f,     -2.8478491f,
  -0.92350906f,    -0.0963482f,     0.2890944f,     -0.021536138f,
  0.1084754f,      0.10633819f,     -0.9819987f,    -0.011002836f,
  -0.21566351f,    -0.059949126f,   0.08241502f,    -5.670813f,
  -6.947413f,      0.20379457f,     -0.91125065f,   0.44605184f,
  -0.78832084f,    0.35875446f,     -0.25053552f,   -0.19807681f,
  0.009372195f,    0.08980994f,     0.006353828f,   0.14257774f,
  0.1609311f,      -1.5117171f,     0.55567753f,    -0.28480202f,
  -6.015538f,      -6.6974645f,     -0.64733773f,   0.38101637f,
  -0.1881872f,     -2.0080857f,     0.9731171f,     -2.5709016f,
  1.1051949f,      -0.07813128f,    -0.2669012f,    -0.15542662f,
  -0.7832362f,     1.6612055f,      5.0467286f,     -1.3041584f,
  0.0018709877f,   0.7011716f,      0.19377992f,    -0.029752512f,
  0.2024382f,      -0.018475274f,   0.46516165f,    0.16710648f,
  -0.020887982f,   0.11030663f,     -0.0481179f,    0.21464191f,
  4.406298f,       0.6188701f,      -7.953239f,     0.48603293f,
  1.0384694f,      0.06495964f,     0.31514198f,    -0.01056317f,
  0.6882196f,      -0.18712762f,    -0.03474849f,   0.271192f,
  -0.02033572f,    0.2722587f,      -0.038893253f,  0.017960127f,
  -0.18459448f,    -0.039030194f,   -0.02886372f,   -2.4552612f,
  -0.30747983f,    -0.6194139f,     0.3009772f,     -0.01806218f,
  0.0014246128f,   0.043513454f,    -0.3877194f,    0.004439044f,
  0.23554668f,     -0.5574141f,     0.3041432f,     -0.8010502f,
  0.37656647f,     0.10671377f,     -4.984546f,     -8.325461f,
  -0.09925434f,    0.0799258f,      -0.14919327f,   -0.022468638f,
  -4.9900904f,     4.685457f,       -0.022998512f,  0.23877165f,
  0.0058654877f,   -1.1842468f,     -8.468971f,     0.28921363f,
  -0.11889707f,    -0.002641683f,   -0.22332025f,   0.10748092f,
  -0.23016655f,    -0.5096661f,     0.17315902f,    -0.33647922f,
  0.086667635f,    -0.2965454f,     -0.05763131f,   1.7554358f,
  -8.877785f,      -0.0021462054f,  0.23591161f,    -0.13727558f,
  -0.0059798774f,  0.22792757f,     0.32588014f,    0.0061688763f,
  -0.01911323f,    0.004195168f,    -0.1076242f,    -0.009066373f,
  -0.003622421f,   -2.0151594f,     0.00033076212f, -2.4452906f,
  -0.38183865f,    0.057472475f,    -15.458001f,    0.0756145f,
  0.0026951414f,   0.07104637f,     -0.011444237f,  -0.00046268952f,
  0.02147211f,     0.094462544f,    -0.0008851374f, 0.005356293f,
  -0.00018071957f, -0.00012755403f, 0.05818084f,    4.107969e-05f,
  -0.0043419893f,  -0.0012428709f,  -0.005281067f,  -0.08364121f,
  -0.00034405626f, -2.3815744f,     3.0467465f,     -0.0015996302f,
  0.025816618f,    0.061888613f,    -5.832854f,     -4.038952f,
  -0.26434013f,    -1.787168f,      0.006464379f,   -1.4561307f,
  0.16455165f,     -0.12904182f,    -1.9567243f,    0.4629187f,
  -1.44105f,       0.39505363f,     -0.08720818f,   -0.2297246f,
  -1.8767751f,     0.6229674f,      0.003182815f,   0.20272069f,
  0.12460394f,     -0.049617697f,   -0.103746064f,  0.13496679f,
  -0.24318072f,    0.16064323f,     -0.15740342f,   0.09408548f,
  0.24890885f,     -0.15575272f,    0.10125065f,    -2.8860707f,
  -9.198261f,      -0.60860014f,    -0.13587262f,   3.6074622f,
  -10.485026f,     0.093879305f,    0.88481706f,    -1.449329f,
  -0.08763109f,    0.49419165f,     0.07575044f,    0.016232442f,
  -0.08666819f,    0.021070287f,    -0.030608637f,  -0.18525386f,
  0.04830834f,     -0.38450894f,    0.03559173f,    -0.19981833f,
  -1.2932324f,     0.63658196f,     1.3236941f,     -3.9139905f,
  -0.14758989f,    -0.5761599f,     0.6634573f,     -0.21355455f,
  2.146878f,       -0.09085578f,    -0.17724593f,   0.29392955f,
  -0.17446981f,    0.19548745f,     -0.1823337f,    -0.22494313f,
  0.088470675f,    -0.10537125f,    0.1499341f,     0.5255872f,
  -0.6695915f,     -0.03617048f,    0.0879262f,     -0.01259759f,
  0.044078972f,    -0.009613573f,   -2.7726877f,    1.3675696f,
  0.20091012f,     -5.88664f,       2.6953545f,     -5.5772343f,
  2.5703137f,      0.08166218f,     -5.546656f,     2.4554129f,
  -5.4640803f,     2.3984225f,      -1.6009897f,    -0.0017030801f,
  0.05669627f,     3.6328125f,      -3.8471737f,    -2.5617948f,
  -2.1640303f,     -2.1018403f,     0.97268915f,    -0.29186305f,
  -1.5427841f,     0.8725455f,      -1.605892f,     0.98557585f,
  -0.23526354f,    -3.9207604f,     -2.633832f,     -2.3863769f,
  -2.9166572f,     1.8199301f,      1.5215071f,     -1.191296f,
  5.328125f,       -0.018853573f,   -0.017711217f,  -0.052924056f,
  -0.017690947f,   0.01032136f,     -0.1787692f,    -1.9305388f,
  -11.779387f,     -0.11782239f,    0.24680234f,    0.22740415f,
  -0.07090051f,    -0.012627621f,   -0.0956125f,    0.023266526f,
  0.003189712f,    0.03768396f,     2.5158136f,     -1.089991f,
  0.21903443f,     4.886187f,       -0.6969703f,    0.030657865f,
  -0.60430646f,    0.06036067f,     -0.028082492f,  0.37631637f,
  -0.013441256f,   0.52912486f,     0.32839188f,    0.057611674f,
  -0.009658277f,   -0.006645857f,   -0.028261052f,  -5.796771f,
  0.738886f,       5.0920963f,      -3.896764f,     0.052617848f,
  -0.060745943f,   0.19718517f,     0.010725244f,   -2.870283f,
  0.30829826f,     -0.0011894554f,  -0.1271827f,    0.014621334f,
  0.061760217f,    -0.2876361f,     -0.06419233f,   0.13748239f,
  0.013785408f,    0.009503114f,    0.2471637f,     -0.17898902f
};

static const float av2_erp_rect_dnn_layer_0_bias_BLOCK_32X32[] = {
  0.4137144f,  -0.37211525f, -3.7288158f, -3.3844895f,  -2.3175817f,
  -4.723707f,  -2.529332f,   -3.2319143f, -2.7159002f,  -5.89252f,
  -3.8885617f, -3.3897326f,  -3.087129f,  -4.6327887f,  -2.208078f,
  -5.3781343f, -5.496613f,   -20.859537f, 0.062056348f, -5.7891064f,
  -4.067747f,  -5.2429113f,  -4.3364997f, -5.0474515f,  -5.645089f,
  -1.2470336f, -0.15086277f, -2.3636072f, -5.1983185f,  -4.435423f,
  2.5263019f,  2.1948633f
};

static const float av2_erp_rect_logits_kernel_BLOCK_32X32[] = {
  -0.4049583f,   0.18097673f,    -0.15084355f,  -0.19749267f,  0.033096235f,
  7.9671593f,    -0.27787873f,   0.061045814f,  1.1915344f,    3.1497371f,
  -1.4434142f,   -1.0507398f,    -0.8158826f,   -0.7090622f,   0.50549334f,
  -1.8386012f,   -2.2126575f,    -0.072480164f, -0.42489f,     -2.8723993f,
  2.6397357f,    2.4858613f,     -11.427125f,   10.729845f,    -1.8426356f,
  0.60773015f,   0.3895518f,     7.7626925f,    0.0010312785f, -3.960908f,
  -0.049874853f, -0.0051455456f, -0.18149062f,  0.3291015f,    0.15756285f,
  -0.0972611f,   0.5451985f,     -4.1972175f,   0.5335962f,    -2.0819714f,
  -0.19507876f,  -3.4549334f,    0.643091f,     0.8786331f,    0.41115054f,
  0.70185196f,   -0.25487834f,   3.277601f,     2.9882941f,    -60.874043f,
  0.24715717f,   0.18417971f,    -1.622329f,    -1.5498465f,   7.231113f,
  -8.089733f,    -0.25512758f,   -0.23803765f,  -0.2016706f,   -5.3808365f,
  0.26137257f,   4.7031384f,     -0.5101948f,   -0.45996216f,  0.123903334f,
  -0.8459739f,   0.79870415f,    0.39586473f,   0.4601786f,    -4.63096f,
  -0.07174732f,  -0.16442858f,   -0.067658156f, 0.27939916f,   0.3760761f,
  0.5104915f,    0.36617297f,    0.9785753f,    -0.3019569f,   -0.5932955f,
  -1.1584429f,   0.18212724f,    0.11063631f,   5.4221296f,    -1.8028523f,
  -1.9204702f,   5.6117897f,     -8.442342f,    3.4438705f,    -0.24460053f,
  -0.13038196f,  -5.9369035f,    0.46387023f,   -0.20736076f,  -0.16241631f,
  -0.45895258f
};

static const float av2_erp_rect_logits_bias_BLOCK_32X32[] = { 0.45036876f,
                                                              0.6787397f,
                                                              -1.2586206f };

static const NN_CONFIG av2_erp_rect_nn_config_BLOCK_32X32 = {
  NUM_FEATURES_BLOCK_32X32,
  NUM_LOGITS_BLOCK_32X32,
  NUM_HIDDEN_LAYERS_BLOCK_32X32,
  {
      NUM_LAYER_0_UNITS_BLOCK_32X32,
  },
  {
      av2_erp_rect_dnn_layer_0_kernel_BLOCK_32X32,
      av2_erp_rect_logits_kernel_BLOCK_32X32,
  },
  {
      av2_erp_rect_dnn_layer_0_bias_BLOCK_32X32,
      av2_erp_rect_logits_bias_BLOCK_32X32,
  },
};

#undef NUM_HIDDEN_LAYERS_BLOCK_32X32
#undef NUM_FEATURES_BLOCK_32X32
#undef NUM_LAYER_0_UNITS_BLOCK_32X32
#undef NUM_LOGITS_BLOCK_32X32

#define NUM_HIDDEN_LAYERS_BLOCK_16X8 1
#define NUM_FEATURES_BLOCK_16X8 19
#define NUM_LAYER_0_UNITS_BLOCK_16X8 32
#define NUM_LOGITS_BLOCK_16X8 3

static const float av2_erp_rect_dnn_layer_0_kernel_BLOCK_16X8[] = {
  0.98271483f,     -0.47112632f,   0.22600001f,     -0.13703842f,
  0.0053621666f,   -0.01546438f,   -0.05508925f,    0.15476343f,
  -0.005694094f,   -0.020561032f,  0.00097607356f,  -0.0572846f,
  -0.29091853f,    0.017775062f,   0.06548022f,     0.0046531986f,
  5.112392f,       0.15273808f,    0.14059901f,     -1.4336011f,
  0.98921f,        -0.20748754f,   0.08904699f,     -0.026408125f,
  -0.08775422f,    0.12166833f,    0.23207214f,     -0.038686465f,
  -0.0043356074f,  -0.02003948f,   -0.02756311f,    0.29968712f,
  -0.04698268f,    -5.7990212f,    -0.029596891f,   -0.30176538f,
  -0.11149283f,    0.15159482f,    0.6248348f,      -0.042539038f,
  0.018712593f,    -1.480431f,     0.5333528f,      -0.21646345f,
  -1.7392888f,     0.111923546f,   -0.007013603f,   -0.20939751f,
  -0.00468495f,    -0.07976486f,   -0.2939146f,     0.031210646f,
  0.35669005f,     -0.005289359f,  0.18179968f,     -0.5956858f,
  -0.27909726f,    2.6328394f,     -4.814226f,      -0.12554832f,
  -0.041734125f,   -1.5864241f,    -1.7070477f,     0.1442293f,
  0.24931177f,     -1.4760872f,    0.40532133f,     -1.1055754f,
  0.33417398f,     0.2937359f,     -1.0016797f,     0.29056498f,
  -2.112539f,      0.5136571f,     -0.4780551f,     -0.2110266f,
  2.2658727f,      -3.7004907f,    -0.1536512f,     0.408476f,
  -1.434106f,      -0.9028494f,    -0.31360203f,    0.23654923f,
  -1.4828144f,     0.42522618f,    -0.9944808f,     0.3356165f,
  0.27901497f,     -0.87836003f,   0.22751047f,     -1.9586483f,
  0.5250451f,      -0.824699f,     0.29239866f,     3.6054287f,
  -8.152154f,      0.032549985f,   -0.40333393f,    0.24558675f,
  0.007678169f,    0.5878108f,     0.01395613f,     0.0083627f,
  -0.16785136f,    0.011776619f,   -0.12580328f,    0.018380016f,
  0.009310358f,    -0.6313861f,    0.008541201f,    -0.59560984f,
  0.30369535f,     0.3176565f,     -2.1640623f,     1.1207285f,
  -0.049420454f,   0.17892435f,    -0.0044650272f,  -0.102728724f,
  -0.16018142f,    0.29264f,       -0.010187435f,   -0.00954309f,
  -0.00097422727f, -6.118697f,     -0.19119905f,    -0.020590337f,
  -0.081424676f,   -0.02571173f,   -0.07616044f,    1.3549439f,
  0.17005327f,     5.7286105f,     -5.5625277f,     -0.31600296f,
  -0.49383178f,    -0.36581525f,   0.0017221536f,   0.56722915f,
  0.075428724f,    -0.001715727f,  -0.044270206f,   0.02149424f,
  -0.071799815f,   0.120403975f,   0.0007499542f,   -0.20848028f,
  0.018944101f,    -0.21991898f,   0.19534837f,     -0.021309495f,
  -1.7125626f,     -3.2189605f,    -0.03698157f,    -0.05970711f,
  -0.009361401f,   -0.0041855187f, 0.069643475f,    0.34066007f,
  -0.0022368361f,  -0.06566443f,   -0.001052459f,   0.040580988f,
  -0.31089017f,    -0.0019535378f, -2.63838f,       -0.00086321065f,
  -2.4595501f,     0.05682229f,    -0.1068528f,     -3.101567f,
  2.5797048f,      -0.055147152f,  0.12126357f,     0.013197605f,
  -1.0131783f,     -4.074986f,     0.105484605f,    -0.031456087f,
  0.024555178f,    -0.0084189195f, 0.05316021f,     0.34206852f,
  -0.06814608f,    -0.72674376f,   -0.09312809f,    -0.91752446f,
  -0.13231546f,    -0.24531597f,   6.020086f,       -6.1999636f,
  -0.03291212f,    0.47997206f,    -0.0005183347f,  -0.004045182f,
  -0.7017583f,     -0.33570766f,   0.002604106f,    -1.129695f,
  0.0050219772f,   -1.1144279f,    -0.029821754f,   -0.0034101165f,
  0.29634628f,     0.0010377712f,  0.12739113f,     2.0705125f,
  0.050599694f,    0.45913965f,    -2.57031f,       -1.8631047f,
  0.9785039f,      1.0897391f,     -0.106999345f,   0.43947032f,
  0.24246916f,     0.023670338f,   -0.036555305f,   -0.088214435f,
  0.023557063f,    0.29598078f,    -0.20279308f,    0.022311475f,
  -0.070793875f,   -0.11647244f,   -1.0207193f,     -0.26208237f,
  -0.55924886f,    3.3984375f,     0.007155429f,    0.15440974f,
  -0.105954535f,   -0.017833378f,  -0.30512804f,    0.2967328f,
  -0.0028617787f,  0.19634727f,    0.005036449f,    1.595363f,
  0.01499176f,     -0.0004522254f, 2.1146867f,      -0.0020565076f,
  1.8242028f,      -0.109363556f,  -0.13598451f,    0.5785404f,
  -1.0227121f,     -0.0009949849f, -0.19786249f,    0.11793635f,
  0.11036915f,     -0.26100102f,   0.02222395f,     0.058625128f,
  -1.5745254f,     0.07457114f,    -1.4179688f,     -0.014152318f,
  0.03024676f,     0.15380165f,    0.015030466f,    4.811097f,
  0.15409115f,     0.28994277f,    1.7152432f,      -1.3049549f,
  -0.23593724f,    0.8108596f,     -0.16796015f,    -1.2804474f,
  0.416562f,       0.30315956f,    -1.1134459f,     0.2552261f,
  -0.59360844f,    0.17391498f,    0.023760617f,    0.013843804f,
  0.10853899f,     -0.9894799f,    0.36376742f,     1.3016601f,
  0.09188852f,     -3.7095733f,    2.5711834f,      -0.173253f,
  0.012980111f,    -0.023220068f,  -0.017127085f,   0.030783864f,
  0.0032063127f,   -0.0080080815f, 0.093694255f,    0.008364085f,
  -5.7718086f,     -0.0025995374f, -0.015784478f,   -0.020397201f,
  -0.013152699f,   -0.036440797f,  -0.5024163f,     0.1939362f,
  -0.7928718f,     1.3789074f,     0.060457237f,    0.030584637f,
  0.00871393f,     -0.12292173f,   0.33870542f,     -0.22667688f,
  -0.07886627f,    1.9578507f,     -0.09617598f,    1.7704153f,
  -0.26725942f,    -0.050637715f,  -0.20542453f,    -0.025608243f,
  -6.2894516f,     -0.01439461f,   0.26795056f,     1.3463111f,
  -0.75871724f,    0.209555f,      -0.6113718f,     0.13154484f,
  -0.009782338f,   -0.014160712f,  0.31760076f,     0.0021409045f,
  5.0609927f,      0.004386768f,   -0.053030547f,   0.23687032f,
  0.0029423619f,   0.094892055f,   0.0010918169f,   0.06742564f,
  -2.4672086f,     0.23826656f,    -5.3588247f,     4.7625065f,
  -0.11391112f,    -0.07305407f,   -0.03554532f,    0.10446965f,
  -0.5837972f,     -0.3327475f,    0.073379114f,    0.15545788f,
  0.11469427f,     0.055696752f,   0.14507687f,     0.022788059f,
  0.244192f,       0.011737267f,   0.28132483f,     0.06335417f,
  0.31834117f,     -11.831921f,    0.6738215f,      -0.0060164556f,
  -0.09643516f,    0.024062743f,   0.0008985846f,   0.057495005f,
  -0.22522143f,    0.0003445139f,  -0.013007203f,   0.00064084877f,
  -0.009760646f,   0.17072317f,    0.0008810534f,   -0.0299979f,
  0.0011609023f,   -0.025061306f,  0.08939705f,     -0.31480408f,
  -3.929238f,      2.8121984f,     -0.17125438f,    0.1695131f,
  -0.1079243f,     -1.1779538f,    -4.057739f,      -0.15526594f,
  -0.101619065f,   0.301196f,      -0.0049994006f,  0.25240144f,
  -0.0145433545f,  -0.16803433f,   -0.4701735f,     -0.13668919f,
  -0.22079815f,    -0.123729035f,  0.16362372f,     -0.4321354f,
  -0.29473865f,    -2.0387836f,    -0.52874774f,    0.746597f,
  -0.03921905f,    -0.33483452f,   -0.31602836f,    0.025995463f,
  -0.2463759f,     -0.06084327f,   -0.11579572f,    0.30048046f,
  -0.035154365f,   0.49059755f,    -0.017816171f,   0.5344822f,
  0.63107425f,     -0.0069111288f, -3.5220973f,     3.243526f,
  -0.005905887f,   -0.24604899f,   0.004612265f,    -0.0059402725f,
  -0.060185485f,   0.05423656f,    0.00085222366f,  -6.140682f,
  0.002225933f,    0.858453f,      -0.10167207f,    -0.0071416353f,
  0.68730533f,     -0.00069704f,   0.115302525f,    0.22802417f,
  0.1507687f,      -12.1520605f,   1.0115892f,      -0.13639593f,
  -0.6308637f,     0.03285221f,    0.013372388f,    0.29209915f,
  0.22907445f,     0.0063171526f,  -0.108515374f,   0.009613998f,
  -0.12239121f,    0.1953918f,     -0.0051359492f,  -0.090886764f,
  0.0025122229f,   -0.07023252f,   0.6190585f,      -0.17929699f,
  0.30226496f,     -0.53112364f,   0.062403f,       0.09175617f,
  -0.08540875f,    0.029991806f,   0.08774006f,     -0.18900833f,
  0.0118952105f,   -0.09102232f,   -0.0014615466f,  -0.078483924f,
  0.14440483f,     0.012978868f,   3.258517f,       0.022578334f,
  0.12583584f,     -0.036750548f,  0.053280026f,    -3.9244025f,
  1.9429222f,      -0.06424885f,   -0.00015058325f, -0.011704752f,
  -0.2889362f,     -0.096958816f,  0.046928972f,    -0.0019464063f,
  -0.030473696f,   2.6069629e-05f, -0.015802128f,   -0.11392552f,
  -0.047288004f,   -0.19707572f,   -5.7421046e-05f, -4.7538323f,
  -0.0008727426f,  -0.31008017f,   -2.6486418f,     1.2639825f,
  0.0003340709f,   0.18020849f,    0.016894968f,    -0.28682894f,
  -0.14550129f,    -0.20804892f,   -0.0004656991f,  -5.6409945f,
  -0.0022971607f,  -0.034075964f,  0.33376744f,     -0.06415235f,
  0.012664599f,    -0.16212623f,   0.010179343f,    -0.120099634f,
  0.02459824f,     2.5570948f,     -2.4429548f,     -0.030589152f,
  0.1534482f,      -0.0047817104f, 0.012077846f,    -0.0025058552f,
  0.04553756f,     0.003766729f,   4.594185f,       0.00051638146f,
  -0.6545904f,     0.13568905f,    -0.00046949674f, -0.5842227f,
  -0.0008612754f,  -0.106215306f,  -0.21685976f,    0.04607311f,
  4.174856f,       -0.44876215f,   -0.09253029f,    0.7558793f,
  -0.3870391f,     0.009544979f,   0.06961207f,     0.012063414f,
  -0.029071944f,   -0.08743598f,   -0.027220324f,   -0.080416985f,
  -0.20313136f,    -0.007574185f,  -0.22578984f,    -0.02079468f,
  -0.30177692f,    -0.41528672f,   -0.14856237f,    -0.33082834f,
  0.7104506f,      0.1339503f,     0.027209511f,    0.037561003f,
  0.017824562f,    0.0873095f,     -0.10417338f,    -0.0041728006f,
  0.201841f,       -0.0003491242f, 0.14553805f,     -0.09391938f,
  0.008215339f,    -2.335936f,     -0.015757008f,   1.2885109f,
  -0.011316668f,   0.07782856f,    -2.4622858f,     1.4726441f,
  -0.050671257f,   -0.00367532f,   -0.0066349874f,  -0.23238298f,
  -0.040674914f,   0.066024035f,   -0.04599299f,    0.021542415f,
  -0.001362602f,   -0.052363478f,  0.2209039f,      0.00068724615f,
  -5.290924f,      -0.07275513f,   -0.30065945f,    0.00601319f,
  0.20699516f,     4.7389107f,     -2.0076847f,     0.18189321f,
  1.1522977f,      -0.79899174f,   0.018835891f,    -0.15191384f,
  0.1560815f,      0.015054677f,   0.17268805f,     0.0009051295f,
  0.2502305f,      -0.10157181f,   0.005340279f,    0.66180366f,
  0.016600614f,    0.4347519f,     -1.2695338f,     -0.02884999f
};

static const float av2_erp_rect_dnn_layer_0_bias_BLOCK_16X8[] = {
  2.218648f,    -2.6031795f,  0.23154762f, -3.9930723f, -3.8870635f,
  -1.6818007f,  -2.662771f,   0.82795435f, -4.3275676f, -3.012891f,
  -0.89828575f, 0.54274505f,  3.4002573f,  0.9915626f,  0.9510591f,
  -1.58155f,    -0.83647716f, 0.89724886f, 0.84197885f, -2.6906443f,
  -1.4342507f,  0.08246506f,  -2.0955608f, -1.6019301f, 0.5068143f,
  -2.8768501f,  -3.3162372f,  1.9366186f,  0.3271594f,  -0.03620637f,
  -2.998845f,   -0.84148675f
};

static const float av2_erp_rect_logits_kernel_BLOCK_16X8[] = {
  -0.48016515f, -0.7880241f,   0.30171955f,   -5.290205f,    4.393023f,
  0.9736263f,   -0.49698222f,  0.42671055f,   4.8464665f,    2.5584445f,
  0.50155693f,  0.022939097f,  0.91990125f,   0.77929693f,   0.54482394f,
  -0.17247088f, -0.5315446f,   -0.44191867f,  -0.47754267f,  -3.2041888f,
  0.47270316f,  0.09224391f,   -0.6073559f,   -0.71675783f,  -0.3411456f,
  -3.4402087f,  -1.5410796f,   0.8184866f,    -0.07626614f,  -0.25536457f,
  -3.9327478f,  -0.21109174f,  -0.072038904f, -0.42494515f,  0.083160646f,
  -1.9656146f,  -113.68833f,   0.16751309f,   4.223301f,     -0.26652813f,
  -1.8120883f,  -2.6444888f,   -5.5379043f,   -0.15824085f,  -0.23486331f,
  0.67019403f,  -1.2403289f,   0.5841179f,    -0.4382196f,   1.634171f,
  -0.21433046f, 1.2375901f,    -0.38953376f,  0.15515462f,   1.3659141f,
  -0.09767095f, -0.1129994f,   -0.33954954f,  4.459945f,     -1.495148f,
  0.30038798f,  -0.2571586f,   -0.6095619f,   -0.011790212f, 1.1220196f,
  0.9846343f,   -0.063572474f, 5.2892413f,    -4.1682224f,   -0.53029066f,
  -0.53372896f, -0.30258518f,  -5.944693f,    -2.1793787f,   0.3638692f,
  -0.37648883f, -0.4646725f,   -0.5955202f,   0.49807614f,   -0.10394667f,
  0.56445366f,  -0.44696522f,  0.5679985f,    2.8777227f,    -0.28177103f,
  0.32928205f,  -0.23131001f,  0.13653733f,   0.34669483f,   3.0463836f,
  -0.85677695f, 0.39870206f,   0.42399904f,   -0.045770388f, 4.9902153f,
  0.22495818f
};

static const float av2_erp_rect_logits_bias_BLOCK_16X8[] = { -0.54976773f,
                                                             -0.5090179f,
                                                             1.1184987f };

static const NN_CONFIG av2_erp_rect_nn_config_BLOCK_16X8 = {
  NUM_FEATURES_BLOCK_16X8,
  NUM_LOGITS_BLOCK_16X8,
  NUM_HIDDEN_LAYERS_BLOCK_16X8,
  {
      NUM_LAYER_0_UNITS_BLOCK_16X8,
  },
  {
      av2_erp_rect_dnn_layer_0_kernel_BLOCK_16X8,
      av2_erp_rect_logits_kernel_BLOCK_16X8,
  },
  {
      av2_erp_rect_dnn_layer_0_bias_BLOCK_16X8,
      av2_erp_rect_logits_bias_BLOCK_16X8,
  },
};

#undef NUM_HIDDEN_LAYERS_BLOCK_16X8
#undef NUM_FEATURES_BLOCK_16X8
#undef NUM_LAYER_0_UNITS_BLOCK_16X8
#undef NUM_LOGITS_BLOCK_16X8

#define NUM_HIDDEN_LAYERS_BLOCK_16X16 1
#define NUM_FEATURES_BLOCK_16X16 19
#define NUM_LAYER_0_UNITS_BLOCK_16X16 32
#define NUM_LOGITS_BLOCK_16X16 3

static const float av2_erp_rect_dnn_layer_0_kernel_BLOCK_16X16[] = {
  -4.313823f,     3.794568f,       0.36918536f,     4.5781064f,
  0.159458f,      0.45819333f,     1.0116822f,      -0.2991945f,
  0.47252315f,    -0.2914947f,     0.5059451f,      -0.2865454f,
  -0.28238732f,   0.43487597f,     -0.14941001f,    0.43460375f,
  -0.17662475f,   -3.2990916f,     -0.1401007f,     -1.1014998f,
  2.026197f,      0.45719787f,     3.6541972f,      -1.2846082f,
  0.0038914206f,  -0.15191129f,    -0.17441286f,    0.00050920015f,
  0.08729877f,    -0.0012971138f,  0.13141859f,     -0.26060358f,
  -0.009513985f,  -0.0016560424f,  0.0041417144f,   0.013588072f,
  -2.5548422f,    0.27316204f,     3.416575f,       -0.4119856f,
  0.45486462f,    2.149451f,       2.8825853f,      0.25660166f,
  -0.19104192f,   -0.3363905f,     0.27385625f,     -0.16036895f,
  0.28651473f,    -0.24819502f,    0.13687104f,     0.24908543f,
  -0.008108789f,  0.24442591f,     0.046621915f,    -1.8794436f,
  0.42705315f,    -1.9823546f,     0.669334f,       -0.021493636f,
  0.09299922f,    0.01533384f,     -0.051723998f,   0.013813171f,
  -0.13993008f,   -0.14596783f,    0.07234774f,     -0.16031043f,
  0.08557354f,    -0.30442375f,    -0.009998332f,   -0.017413704f,
  -2.7887757f,    -5.1028914f,     -0.10905504f,    -0.21377346f,
  -3.6434405f,    3.093234f,       -0.04659554f,    0.49392438f,
  -0.34286925f,   0.010391953f,    -5.052354f,      0.20040908f,
  -0.0045439256f, 0.16091415f,     -0.0034767506f,  0.1678135f,
  -0.1498829f,    -0.0116219735f,  -0.015449537f,   -0.0010166232f,
  -0.62737036f,   -0.7233876f,     -0.8598567f,     0.5226576f,
  3.3283987f,     -0.2240834f,     1.005952f,       0.47306034f,
  -0.024931839f,  -0.14797094f,    -0.1999387f,     -0.021304656f,
  0.13057278f,    -0.040703032f,   0.15206318f,     0.17770186f,
  -0.01105244f,   0.7195452f,      -0.006812013f,   0.6622876f,
  -1.103694f,     -0.38357604f,    -10.776019f,     0.6133012f,
  0.08898195f,    1.9265077f,      -0.80142826f,    -0.005567179f,
  -0.07827619f,   0.16715017f,     0.0034757848f,   0.14569616f,
  -0.0047375318f, 0.19777809f,     -0.24577293f,    -0.0029847464f,
  -0.06577274f,   -0.024854356f,   -0.079326876f,   -1.2236238f,
  0.35442603f,    -1.5435429f,     2.7884848f,      0.21299945f,
  -0.08272184f,   0.04943551f,     -0.003381557f,   0.50572634f,
  -0.054565787f,  0.002955006f,    -5.892626f,      -0.049453605f,
  -0.4003522f,    0.04902655f,     -0.0057914234f,  0.5549164f,
  -0.005997586f,  0.44763517f,     0.064598545f,    -0.05565119f,
  3.0248928f,     -3.8199656f,     -0.56157786f,    -1.1815181f,
  -0.618042f,     0.01946957f,     0.5440474f,      -0.28300253f,
  -0.033050083f,  -0.0069723763f,  -0.047484573f,   -0.10671274f,
  0.13717854f,    -0.017499022f,   -0.0077684354f,  0.013291858f,
  0.019535981f,   0.010261594f,    -0.5501336f,     -1.17227f,
  -6.370278f,     -0.008009553f,   0.017280158f,    -0.061134458f,
  6.160904e-05f,  0.08661282f,     -0.26096252f,    -0.0017330626f,
  -0.34418654f,   -0.0069040656f,  -0.052446526f,   0.16389576f,
  -0.0021175381f, -1.2635497f,     0.0011375094f,   -0.4261783f,
  1.3286697f,     0.036289863f,    -5.7748647f,     -0.5927868f,
  0.5311234f,     -1.8297858f,     2.3452957f,      -0.017388284f,
  -0.3569553f,    0.27826247f,     0.0022859129f,   0.08137336f,
  0.0005683024f,  -0.11359943f,    0.32554653f,     -0.011239117f,
  0.53217936f,    0.00044301778f,  0.3748892f,      1.3866633f,
  -1.8386383f,    0.14546089f,     2.2226162f,      0.0005264087f,
  -0.21412408f,   0.028066017f,    -0.18140814f,    0.04760055f,
  0.19229099f,    -0.17827836f,    2.1015594f,      -0.4522619f,
  -8.532943f,     0.016640604f,    -0.004371829f,   0.08074514f,
  -0.3738686f,    0.1817347f,      0.6918111f,      -0.019946273f,
  -2.0855103f,    2.9827068f,      -0.029240271f,   -0.04663938f,
  -0.062110685f,  -0.053144213f,   1.5101163f,      -0.22600967f,
  -0.12180473f,   0.056139622f,    -0.094463766f,   0.05354f,
  -0.3255961f,    0.003798196f,    -7.7870445f,     -0.056868397f,
  0.10740498f,    0.034089956f,    0.035648663f,    -2.5342455f,
  2.666176f,      -0.025569448f,   0.23980725f,     -0.08170305f,
  -1.6252317f,    -4.488599f,      0.26008138f,     -0.27087006f,
  0.068691656f,   -0.35401765f,    -0.021858219f,   0.13168901f,
  -0.07413269f,   0.0449186f,      -0.715278f,      0.25077072f,
  -0.7249361f,    0.104055904f,    -0.33086392f,    0.70210254f,
  -0.0284565f,    0.017290749f,    -0.00919888f,    -2.7281885f,
  -1.1150594f,    0.003595978f,    -3.8306034f,     1.1816983f,
  -3.4636457f,    1.098764f,       -0.08112243f,    -3.335918f,
  1.0507953f,     -3.4881196f,     1.0717791f,      -0.029758919f,
  -0.2612457f,    -4.7350864f,     4.2079835f,      0.041603994f,
  4.7656217f,     -0.02829647f,    0.43469426f,     0.8936515f,
  0.23983797f,    0.4448162f,      -0.11959581f,    0.48295397f,
  -0.13421088f,   -0.1579502f,     0.3707467f,      -0.13552114f,
  0.37329024f,    -0.16427305f,    -5.1716814f,     0.17255692f,
  0.85995466f,    -6.234484f,      -0.00024691175f, 0.045415513f,
  0.018316634f,   -0.0005346112f,  0.100440405f,    -0.31813356f,
  -0.006241941f,  0.019254453f,    -0.0033462036f,  -0.029581888f,
  -0.27683875f,   -0.006738895f,   -1.4490767f,     -0.0043692635f,
  -1.5368274f,    -0.04716842f,    1.3814543f,      -0.0152467545f,
  -1.1450888f,    -0.43755063f,    1.536174f,       -0.008385008f,
  0.1911612f,     2.2345116f,      -0.31415036f,    0.11586982f,
  -0.04024385f,   0.17784247f,     0.13160352f,     -0.2622042f,
  -0.0806824f,    -0.028373852f,   -0.03716857f,    -0.3900318f,
  -1.6541479f,    0.3560758f,      3.67925f,        -4.2947803f,
  0.15168586f,    1.0195576f,      -1.4108577f,     0.0010655378f,
  0.24830708f,    -0.1539033f,     0.003524445f,    -0.048054762f,
  -0.018483005f,  -0.08626991f,    -0.16735405f,    0.021894386f,
  -0.031060496f,  -0.0963397f,     0.013786846f,    -0.19805968f,
  0.014788329f,   -2.4475915f,     2.3511279f,      -0.027895916f,
  -0.114213325f,  -0.7019813f,     -0.008416985f,   -0.1336701f,
  0.028841078f,   -0.014513597f,   0.0707263f,      -0.029364847f,
  0.10388303f,    -0.14968485f,    -0.026561199f,   0.10837738f,
  0.040359672f,   -6.4538765f,     -0.099241726f,   0.3614932f,
  -3.5239935f,    0.9084579f,      -0.030168563f,   0.018606573f,
  -0.05429728f,   0.001909692f,    0.07305259f,     0.08782363f,
  -0.010611236f,  0.024354229f,    -0.006506526f,   0.0039505754f,
  0.29203126f,    -3.4744387f,     -4.390375f,      -0.0011131115f,
  -0.018214878f,  -0.030167917f,   0.02811923f,     1.014717f,
  -1.9596258f,    -0.16532795f,    0.9109048f,      -0.122720994f,
  0.008105399f,   -0.4618169f,     -0.05207789f,    0.003458437f,
  4.2591634f,     0.038720373f,    0.3763657f,      -0.07299307f,
  0.009528565f,   -0.49662974f,    0.009392111f,    -0.4038357f,
  -1.9334275f,    0.10258052f,     -11.238878f,     0.053437553f,
  -0.0011717728f, 0.0011646384f,   -0.0018670177f,  -0.00041989385f,
  0.02125224f,    -0.28687564f,    0.00083189685f,  -0.006727746f,
  0.00027914913f, -0.005227462f,   -0.09888266f,    0.0002093565f,
  -0.0075128046f, -1.3669943e-05f, -0.007524012f,   -0.0062364475f,
  -0.004682555f,  -2.2654855f,     3.2591548f,      -0.030078413f,
  -0.015747251f,  -0.06253235f,    -0.06094392f,    1.7543589f,
  0.069125354f,   -0.13562301f,    0.06046917f,     -0.1088935f,
  0.059979297f,   -0.32408935f,    0.0022411358f,   -8.531348f,
  -0.06834238f,   0.10336033f,     0.017819736f,    0.04593537f,
  -0.32738367f,   -7.6924787f,     0.005991725f,    0.1280051f,
  0.08954234f,    -0.0037944836f,  0.095393024f,    0.09812352f,
  0.0014910537f,  -0.040771075f,   -0.0013296321f,  -0.010543782f,
  0.2204239f,     -0.0012686079f,  -0.023999058f,   -0.0005268074f,
  -0.03399149f,   -0.1373582f,     -0.10357258f,    -12.343415f,
  0.22184661f,    -0.00407963f,    0.20577785f,     0.09811982f,
  0.0029544393f,  0.10771304f,     -0.18924458f,    0.005247013f,
  -0.03301926f,   0.012909696f,    -0.04112686f,    -0.26840004f,
  0.007431444f,   -0.05229766f,    0.009162911f,    -0.019776337f,
  -0.21409397f,   -0.13640887f,    0.08119879f,     -0.09805283f,
  0.024821633f,   0.06331843f,     0.01804305f,     -0.9518155f,
  0.34500515f,    -0.11901645f,    -5.0467844f,     -3.8947234f,
  -0.4098665f,    0.17496316f,     -0.02738586f,    -1.0095375f,
  0.3478664f,     -1.5743845f,     0.50507474f,     -0.022210382f,
  -0.036715813f,  5.1741037f,      -9.531252f,      0.16395402f,
  0.5198821f,     0.4895457f,      -0.005844953f,   0.27513587f,
  -0.027713358f,  0.00046196883f,  -0.08132839f,    0.007566308f,
  -0.10286651f,   0.33569315f,     0.01590725f,     -0.1442846f,
  0.031902585f,   -0.15060076f,    -0.51755303f,    -0.4623268f,
  0.05003358f,    2.1174273f,      0.0053111953f,   -0.015473343f,
  -0.0008855706f, -0.15747316f,    0.02891792f,     0.2880014f,
  -0.15928102f,   1.9405582f,      -0.41123295f,    -8.09283f,
  -0.01656431f,   -0.0023200745f,  0.064850435f,    -0.33665296f,
  0.15568402f,    0.36517972f,     -0.0021982822f,  0.47797513f,
  -0.4284954f,    0.5323603f,      0.25992543f,     0.818152f,
  0.0031378386f,  -0.092559025f,   0.21583036f,     0.0036969297f,
  4.01046f,       0.031306513f,    0.11839948f,     -0.2680726f,
  0.075115144f,   -0.09575586f,    0.08062912f,     -0.03320254f,
  -5.563796f,     -0.6223337f,     -0.266207f,      -3.8661487f,
  -0.75255555f,   -3.804277f,      -1.1543322f,     -0.00810984f,
  0.13099138f,    -0.24341547f,    0.06573276f,     -0.014395781f,
  0.082113996f,   -0.03805899f,    0.13113719f,     -0.00071656634f,
  -0.15579337f,   0.0047621485f,   -0.13892108f,    -0.5846117f,
  -0.13203578f,   6.3142223f,      -1.0745367f,     0.5641838f,
  0.8330401f,     0.37136963f,     -0.01758507f,    -0.11374517f,
  0.02576226f,    -0.024651362f,   0.13044651f,     -0.03773837f,
  -0.017385265f,  -0.24027508f,    -0.003083532f,   0.22129168f,
  -0.016744973f,  0.2194707f,      0.4634736f,      -0.11110532f
};

static const float av2_erp_rect_dnn_layer_0_bias_BLOCK_16X16[] = {
  3.456158f,     1.6401043f,  2.4341183f,    -3.3075023f, -1.5474263f,
  2.3781931f,    -1.1263992f, -1.3909752f,   1.8831838f,  -3.1982977f,
  -0.016532658f, -2.4444153f, -2.3255386f,   -2.38211f,   -2.441067f,
  2.5366094f,    -3.159559f,  -0.047615953f, -0.1637264f, -1.6327046f,
  -3.3544116f,   0.9547227f,  -2.4504645f,   -2.697189f,  -2.779127f,
  -2.1195104f,   -3.355005f,  -1.4971522f,   -2.1892464f, -0.27592131f,
  -1.6844304f,   -0.16293882f
};

static const float av2_erp_rect_logits_kernel_BLOCK_16X16[] = {
  1.5596001f,    0.25656366f,   0.8491757f,    -2.5079534f,  0.27783263f,
  0.8685433f,    -0.52189136f,  -0.4461323f,   0.17883193f,  0.7443255f,
  -0.23259847f,  1.8086283f,    -3.2578669f,   0.61151075f,  9.077507f,
  -1.7532145f,   0.6346645f,    0.21184935f,   0.56646085f,  -0.15095294f,
  -4.4233575f,   0.8495966f,    -15.340874f,   2.8424008f,   2.7558804f,
  -1.6856537f,   -2.3449178f,   0.79562473f,   -1.9577193f,  -0.5761348f,
  0.47870347f,   -0.37546748f,  -2.5548575f,   -0.6619488f,  0.26929507f,
  -1.0389929f,   -0.16573742f,  -0.533212f,    0.49947092f,  1.0892335f,
  -0.32110605f,  -12.033161f,   0.22000876f,   -3.2112386f,  -0.5193569f,
  -1.1217569f,   -8.022538f,    3.027523f,     0.48851934f,  -0.14537276f,
  -0.14193815f,  0.0012501432f, 0.06685165f,   -1.0364879f,  9.625726f,
  0.38094345f,   -1.7054418f,   1.121653f,     4.8786125f,   -0.5055259f,
  3.538254f,     1.2474724f,    0.0112453485f, 0.69527096f,  1.3197453f,
  -0.021417167f, -0.31088984f,  4.2684584f,    -0.33474302f, 0.2357149f,
  0.17088956f,   -0.32856372f,  -0.32726884f,  0.5078103f,   0.41017884f,
  0.9902148f,    4.2655416f,    -0.84222245f,  -7.672845f,   -0.7322461f,
  -12.992897f,   -0.032262065f, 0.055803187f,  0.5039738f,   5.0701733f,
  0.76304924f,   7.8977256f,    -3.8164363f,   -1.765176f,   1.1459935f,
  -0.88523275f,  -0.6308711f,   -1.0523354f,   -0.5117741f,  -0.0879176f,
  0.72547793f
};

static const float av2_erp_rect_logits_bias_BLOCK_16X16[] = { -1.4412873f,
                                                              2.4711847f,
                                                              -1.0176674f };

static const NN_CONFIG av2_erp_rect_nn_config_BLOCK_16X16 = {
  NUM_FEATURES_BLOCK_16X16,
  NUM_LOGITS_BLOCK_16X16,
  NUM_HIDDEN_LAYERS_BLOCK_16X16,
  {
      NUM_LAYER_0_UNITS_BLOCK_16X16,
  },
  {
      av2_erp_rect_dnn_layer_0_kernel_BLOCK_16X16,
      av2_erp_rect_logits_kernel_BLOCK_16X16,
  },
  {
      av2_erp_rect_dnn_layer_0_bias_BLOCK_16X16,
      av2_erp_rect_logits_bias_BLOCK_16X16,
  },
};

#undef NUM_HIDDEN_LAYERS_BLOCK_16X16
#undef NUM_FEATURES_BLOCK_16X16
#undef NUM_LAYER_0_UNITS_BLOCK_16X16
#undef NUM_LOGITS_BLOCK_16X16

#define NUM_HIDDEN_LAYERS_BLOCK_128X64 1
#define NUM_FEATURES_BLOCK_128X64 19
#define NUM_LAYER_0_UNITS_BLOCK_128X64 32
#define NUM_LOGITS_BLOCK_128X64 3

static const float av2_erp_rect_dnn_layer_0_kernel_BLOCK_128X64[] = {
  -2.506532f,      0.28045833f,    2.5386374f,     -0.22543839f,
  -1.8109485f,     1.0371261f,     -1.1931573f,    -0.084572524f,
  -0.30307072f,    0.13980407f,    0.25740162f,    -0.031259805f,
  0.16140905f,     0.08676796f,    0.0010598307f,  0.031559348f,
  0.7404401f,      0.15955499f,    0.23091808f,    -0.010813466f,
  0.6608346f,      -0.013616751f,  0.15907493f,    0.0029820835f,
  -5.568085f,      -5.94086f,      0.15301004f,    0.10304397f,
  -0.2421907f,     0.3353583f,     -0.0150357485f, -0.14117612f,
  -1.7937771f,     4.9551716f,     -1.7899275f,    4.9843583f,
  0.06314239f,     0.14125404f,    -0.00740058f,   0.21010362f,
  0.42217353f,     0.19619092f,    -5.215479f,     -0.61607206f,
  0.51267636f,     -0.08356273f,   -0.032555312f,  0.13525385f,
  -0.26503927f,    -0.17789084f,   -0.21694314f,   -0.6391002f,
  0.22953647f,     -0.14889197f,   -0.18553238f,   -0.066824794f,
  0.21402076f,     -0.11873995f,   -0.3698288f,    -0.038020123f,
  -0.24991724f,    -0.009971571f,  1.795985f,      -1.5302051f,
  -0.34108016f,    -0.16325973f,   0.22090796f,    -0.34293526f,
  -0.19143939f,    -0.33915275f,   5.1408954f,     2.017177f,
  -0.08915838f,    0.19543786f,    0.06271839f,    -0.18352854f,
  -0.27947348f,    -0.019531911f,  -0.086758934f,  0.16798988f,
  -0.03486954f,    1.8979594f,     -1.6261634f,    0.31714347f,
  0.107797235f,    -0.2538663f,    -0.15111324f,   -0.06643784f,
  0.31353858f,     0.65670687f,    -0.094293684f,  3.8498967f,
  1.3455544f,      0.064578f,      -0.17310345f,   -0.015191911f,
  -3.4439917f,     0.33131295f,    -0.33426544f,   0.06500408f,
  -0.23592493f,    4.0017943f,     0.0021757483f,  -0.24217385f,
  0.22997192f,     -0.25059974f,   0.3388255f,     0.050567895f,
  -1.6635171f,     1.2724344f,     -0.5103623f,    0.21063782f,
  0.10647997f,     -0.17380133f,   -0.6718874f,    1.7309347f,
  -0.00013256766f, -0.0035260618f, 0.003909084f,   -3.117661f,
  -2.6319456f,     0.30089018f,    -0.041787595f,  0.33594397f,
  -0.25161058f,    0.21454886f,    0.006350547f,   -0.49952f,
  0.21353924f,     -0.31812453f,   0.2241407f,     0.3106914f,
  -0.1121867f,     -0.014497388f,  0.1712063f,     -0.053551644f,
  -0.077886194f,   0.025620695f,   -0.21342659f,   -0.48415533f,
  -0.313888f,      -0.057924867f,  0.20876226f,    0.015923202f,
  -0.14799958f,    0.11663431f,    -3.0285864f,    -3.0636523f,
  1.3187762f,      3.6094983f,     -0.035618007f,  0.2262635f,
  -0.14951304f,    1.6960053f,     0.15072772f,    -0.060670942f,
  0.24975826f,     -2.0909152f,    -4.004036f,     -0.30256224f,
  0.051576942f,    0.081947654f,   -0.18321116f,   0.08618033f,
  -0.17570445f,    -0.5041034f,    0.8293387f,     -1.026389f,
  0.9473935f,      0.19161728f,    0.1902866f,     -5.474283f,
  0.08723049f,     0.0033701262f,  0.16179541f,    -0.0034300988f,
  -0.021641597f,   0.083398f,      -0.14289859f,   0.10488835f,
  -0.31514895f,    -0.010082036f,  0.05203244f,    0.31449375f,
  0.00634245f,     -0.015689943f,  0.043098107f,   0.0112456065f,
  0.11093789f,     -0.050913244f,  0.020395013f,   -0.58071315f,
  -0.123843715f,   0.23172024f,    0.03612815f,    -0.21600088f,
  -0.18807629f,    -0.16067648f,   -0.25185877f,   0.28580585f,
  -0.17617008f,    0.15862116f,    -0.000808537f,  -0.081647195f,
  4.3604555f,      -0.010917856f,  4.2016563f,     0.3013548f,
  0.07670486f,     0.51229894f,    -5.8881474f,    -0.0017866951f,
  -0.01940608f,    0.03378582f,    -0.016696144f,  0.13145211f,
  0.10312435f,     0.19640449f,    0.1226584f,     -0.026839256f,
  0.023174435f,    -0.023105323f,  0.009376229f,   -0.06244787f,
  0.04403202f,     0.03713927f,    0.016759187f,   -0.11956747f,
  -0.017612463f,   0.3397945f,     -0.016503824f,  -0.14955203f,
  -0.004014388f,   -4.004633f,     -2.1838012f,    0.33085975f,
  -0.019205302f,   0.03400603f,    0.006412357f,   -0.15811464f,
  -0.24435729f,    -1.1048666f,    2.6776054f,     -1.1628258f,
  2.758335f,       -0.30440748f,   -0.05467823f,   -5.067365f,
  -0.34856185f,    0.23205368f,    0.32347277f,    0.19693084f,
  0.0010274344f,   0.24484034f,    0.04886219f,    0.3047172f,
  0.039542496f,    -0.11699216f,   0.03792599f,    -0.10565837f,
  -0.7630396f,     0.57441145f,    -0.5864445f,    0.36686322f,
  -0.2758804f,     0.17392394f,    -0.01558516f,   0.007658186f,
  -0.11287764f,    -0.32648322f,   0.28483906f,    -2.722388f,
  -4.939419f,      0.15942493f,    -0.18213506f,   0.18202892f,
  -0.14280568f,    0.0914897f,     -0.32300386f,   -0.69736725f,
  3.3336763f,      -0.12933284f,   2.9908397f,     -0.071127f,
  -0.20517734f,    0.32442448f,    0.14392926f,    -3.6208644f,
  0.22132066f,     -3.768886f,     0.7298321f,     0.15170299f,
  -0.24332389f,    0.23012426f,    -0.30987996f,   -0.06358087f,
  0.11034697f,     0.19300756f,    -0.017435957f,  -0.45210123f,
  -0.8303708f,     0.6626755f,     0.10209903f,    -0.19165348f,
  0.41440102f,     0.14553848f,    0.31930977f,    -0.035242498f,
  -4.6785717f,     -0.58237594f,   -0.6079646f,    -0.11056498f,
  0.1928502f,      0.07702237f,    -0.09246564f,   -0.27449316f,
  0.2196537f,      -0.46088362f,   0.59921527f,    -0.016686175f,
  -0.100372635f,   -0.31696266f,   0.057308763f,   0.7634195f,
  -3.7664862f,     0.17578156f,    0.09272918f,    -0.24099605f,
  -0.04391763f,    -0.3514399f,    -0.29106656f,   0.21260825f,
  -0.13252217f,    0.04045379f,    0.34270343f,    0.1804854f,
  -0.16778612f,    0.6230152f,     -0.010773383f,  0.21969844f,
  -0.24578848f,    0.2619448f,     0.038712237f,   0.38758332f,
  -0.00894243f,    -0.22991493f,   -0.0017123378f, -0.4111399f,
  -0.037217636f,   -0.29651347f,   -0.2545378f,    0.15064499f,
  0.18629202f,     -0.25676972f,   -0.056910098f,  -3.20591f,
  -5.179922f,      1.8950151f,     4.5775905f,     0.21804151f,
  0.29880324f,     0.19018877f,    -1.3563639f,    0.072748646f,
  0.24118027f,     -0.14516181f,   -0.45396328f,   -0.52656573f,
  0.050606966f,    0.02223441f,    -0.06689718f,   0.09005624f,
  0.33823147f,     0.17492452f,    -0.004629861f,  -0.23203267f,
  -0.04505696f,    -0.39532214f,   0.29443434f,    -0.023338228f,
  0.40659994f,     -4.651954f,     -0.00350867f,   0.025187701f,
  -0.03227316f,    -0.27568206f,   1.0398294f,     -0.19633979f,
  -0.13543457f,    -0.20820235f,   0.21456835f,    0.01781404f,
  0.1224134f,      0.25991642f,    -0.5370404f,    0.19266053f,
  -0.47305205f,    0.026758969f,   0.1972957f,     -0.9307868f,
  1.8782669f,      0.1580449f,     0.13386813f,    -0.7112738f,
  -0.69711554f,    -3.7267945f,    -0.22050986f,   -0.079758406f,
  0.2097933f,      0.27420714f,    -0.097160116f,  0.26516291f,
  0.010903051f,    0.15371351f,    0.09153214f,    -0.28731385f,
  -0.2873699f,     0.27081493f,    0.0062431977f,  -0.05708123f,
  0.08417565f,     -0.07480231f,   -0.0052440446f, 2.7040966f,
  -2.173433f,      0.19665226f,    0.29074076f,    -0.24574277f,
  -0.16436191f,    -0.17979886f,   -0.16467176f,   3.961792f,
  -2.7324774f,     2.8061981f,     -2.0082495f,    0.03755498f,
  0.2457439f,      -2.3642256f,    -1.5365297f,    -0.9835634f,
  0.20108834f,     -0.99716085f,   0.20026691f,    1.3142748f,
  -0.010575801f,   0.32449904f,    -0.20212877f,   -0.057254046f,
  0.31178603f,     -0.25498092f,   -1.3798422f,    1.8135039f,
  0.6178654f,      -0.049227048f,  -0.0017213225f, 0.29602936f,
  -0.15198468f,    3.0080888f,     -0.04493533f,   -0.27232027f,
  -0.018973747f,   -0.60239315f,   0.5994882f,     0.08809587f,
  0.037841678f,    -0.33883414f,   0.22528896f,    0.17784086f,
  0.0489029f,      -1.0856712f,    -3.1181223f,    -1.8528298f,
  -2.4097655f,     -0.074619055f,  0.10088742f,    -4.5525155f,
  -0.11302232f,    -0.0830323f,    0.32903865f,    -0.08582617f,
  -1.0791879f,     0.6676366f,     0.14142448f,    -0.33848006f,
  0.23071805f,     -0.3182786f,    0.12217936f,    -0.13541117f,
  -0.45292598f,    0.5375567f,     -0.75707936f,   0.7476728f,
  -0.22338569f,    -0.092332006f,  0.81143165f,    -1.577314f,
  -0.3979244f,     0.17346588f,    -0.4006997f,    -0.056310683f,
  0.9193481f,      0.1741524f,     0.25768843f,    -0.16577452f,
  -0.247004f,      -0.2527728f,    0.16200998f,    0.4697013f,
  -0.43266678f,    2.6040835f,     2.2331393f,     -0.09892444f,
  -0.045421094f,   -1.6206177f,    0.6338519f,     -1.0888418f,
  -0.0030080676f,  -0.69182575f,   -0.113686495f,  0.4302406f,
  -0.3090066f,     -0.16100071f,   0.17380467f,    0.15946403f,
  -0.025358945f,   0.24844f,       0.35140723f,    -0.9346427f,
  0.27606517f,     -0.80877894f,   0.14869568f,    0.16246572f,
  -5.257725f,      -0.16903147f,   -0.16748884f,   -0.21760473f,
  -0.08896945f,    -0.05205088f,   0.47141102f,    0.04281968f,
  -0.24170062f,    -0.2277184f,    -0.26801395f,   -0.13947426f,
  -0.1506252f,     0.30208486f,    -0.21490522f,   -0.060866326f,
  0.04193085f,     -0.17791651f,   0.24698612f,    -0.3829296f,
  0.9419753f,      0.07237536f,    -0.27676648f,   0.020806722f,
  -1.8048466f,     -1.4195592f,    -0.24652447f,   -0.040301442f,
  0.09215298f,     0.29266015f,    0.061532766f,   0.32517043f,
  -0.049672008f,   -0.51679015f,   -0.36456126f,   -0.46788138f,
  0.12446484f,     0.1276857f,     2.3150058f,     0.08639016f,
  2.0320406f,      0.1043852f,     -3.9988267f,    0.17100137f,
  -1.6238407f,     -0.20760979f,   -0.16333209f,   -0.33641723f,
  -0.14739648f,    -0.21317233f,   -0.09178123f,   0.38100025f,
  -0.29380047f,    -0.15430439f,   0.15633583f,    -0.23260906f,
  0.24286714f,     0.09665684f,    0.5225695f,     0.03696216f,
  -0.25967452f,    -0.095837906f,  -0.59474707f,   0.29876855f,
  -0.13080387f,    0.06378433f,    -0.11309238f,   0.06367412f,
  -0.06239733f,    0.09152764f,    -3.3486404f,    -6.211837f,
  2.3942802f,      4.8193793f,     0.12199968f,    -0.03734055f
};

static const float av2_erp_rect_dnn_layer_0_bias_BLOCK_128X64[] = {
  -1.747886f,  -2.1865277f, -0.6352243f, 2.79527f,    2.2572293f,   0.2983602f,
  -2.6138515f, -0.4466072f, -0.6815218f, -2.2448225f, 3.9069366f,   -2.7805161f,
  -1.1144366f, -2.1800528f, -1.8819572f, -1.879211f,  -0.38282812f, 0.41722852f,
  -0.8677053f, -2.4599485f, -1.4132276f, -2.0755339f, 0.3947485f,   0.32123208f,
  -2.795389f,  -1.8792014f, 0.9298135f,  1.4810296f,  -1.1417042f,  -2.3668482f,
  -9.3067f,    -1.2724826f
};

static const float av2_erp_rect_logits_kernel_BLOCK_128X64[] = {
  0.13278288f,  -5.5735207f,  -0.8165344f,  -1.2209895f,  -0.5935022f,
  0.8115797f,   15.754949f,   1.7555044f,   0.6167518f,   -16.654287f,
  1.6434584f,   10.733852f,   8.844905f,    -2.5933535f,  1.2393262f,
  -0.07806018f, 0.6034534f,   0.36964396f,  -2.833431f,   7.215928f,
  1.1846737f,   1.2884016f,   2.1794918f,   -0.19920987f, -0.669842f,
  -4.409026f,   -0.59455293f, 0.029314565f, -0.9221345f,  8.52594f,
  -0.2843626f,  2.0519779f,   -0.17854401f, 0.14560069f,  -0.95531714f,
  -2.4132442f,  -3.4014206f,  -1.6926781f,  -0.48201817f, -5.1824627f,
  -4.351518f,   0.11809257f,  -6.2249293f,  -0.18523312f, -0.7986774f,
  -0.3486562f,  -1.4349512f,  -2.6619034f,  -1.111548f,   -4.239927f,
  -0.42520374f, -0.556528f,   -2.3328147f,  -0.69103146f, -1.0996721f,
  -0.28855667f, -3.423904f,   -0.08935143f, -1.0021964f,  -3.1081696f,
  -0.18960789f, -0.2997338f,  -0.72733504f, -1.0491073f,  0.6523775f,
  5.5260167f,   0.6329956f,   1.017155f,    1.5619309f,   0.18864422f,
  -16.186638f,  -1.3751302f,  -0.36774918f, 17.388668f,   -1.3596704f,
  -11.426989f,  -9.128285f,   1.7725366f,   -1.0287008f,  0.30080697f,
  -0.28564215f, -0.41426566f, 3.5855784f,   -7.607443f,   -0.7207365f,
  -1.04289f,    -1.2123969f,  0.32490245f,  1.6610729f,   3.5606258f,
  0.023072207f, 0.58193326f,  0.6046632f,   -7.9153557f,  0.9227243f,
  -1.4597775f
};

static const float av2_erp_rect_logits_bias_BLOCK_128X64[] = { -0.69522446f,
                                                               -4.1751566f,
                                                               0.678112f };

static const NN_CONFIG av2_erp_rect_nn_config_BLOCK_128X64 = {
  NUM_FEATURES_BLOCK_128X64,
  NUM_LOGITS_BLOCK_128X64,
  NUM_HIDDEN_LAYERS_BLOCK_128X64,
  {
      NUM_LAYER_0_UNITS_BLOCK_128X64,
  },
  {
      av2_erp_rect_dnn_layer_0_kernel_BLOCK_128X64,
      av2_erp_rect_logits_kernel_BLOCK_128X64,
  },
  {
      av2_erp_rect_dnn_layer_0_bias_BLOCK_128X64,
      av2_erp_rect_logits_bias_BLOCK_128X64,
  },
};

#undef NUM_HIDDEN_LAYERS_BLOCK_128X64
#undef NUM_FEATURES_BLOCK_128X64
#undef NUM_LAYER_0_UNITS_BLOCK_128X64
#undef NUM_LOGITS_BLOCK_128X64

#define NUM_HIDDEN_LAYERS_BLOCK_64X64 1
#define NUM_FEATURES_BLOCK_64X64 19
#define NUM_LAYER_0_UNITS_BLOCK_64X64 32
#define NUM_LOGITS_BLOCK_64X64 3

static const float av2_erp_rect_dnn_layer_0_kernel_BLOCK_64X64[] = {
  -3.6454084f,     -0.59838617f,   0.013810501f,   0.0030246617f,
  0.035173554f,    -0.8703488f,    0.15965132f,    -0.074950814f,
  -0.6832175f,     0.5203558f,     -0.6167184f,    0.43970916f,
  0.0021321774f,   -0.746606f,     0.5249735f,     -0.47929507f,
  0.355379f,       0.26889995f,    -0.10529576f,   -0.2781239f,
  0.63758755f,     0.0054476466f,  0.05351288f,    -0.009249377f,
  -0.34355703f,    0.20977186f,    -0.32345167f,   -2.5859914f,
  -3.179153f,      0.009234929f,   -0.08603135f,   -0.254491f,
  -0.5682713f,     0.442394f,      -0.43134686f,   0.27967182f,
  0.120568514f,    0.1670743f,     -4.7065234f,    0.017472807f,
  0.0013825033f,   0.006949153f,   -0.0023127645f, -0.00096945546f,
  0.024270186f,    -0.30927467f,   0.006919864f,   0.010875352f,
  -0.0006179978f,  0.007425309f,   0.1924518f,     0.0010261451f,
  0.0013342958f,   0.004641414f,   -0.0016503844f, 0.19669601f,
  -0.06578606f,    0.3115183f,     -2.5100744f,    -1.4303408f,
  -0.31801286f,    0.3949447f,     -0.17699014f,   1.1902995f,
  0.24731293f,     -0.4012889f,    0.6580914f,     0.07572302f,
  0.06965709f,     0.04664308f,    -0.13346756f,   0.09892762f,
  -0.5490351f,     0.44158718f,    -0.054146856f,  0.06642082f,
  -0.2997028f,     0.34323227f,    0.025635108f,   0.045349233f,
  -0.17851663f,    -0.045477502f,  0.15150851f,    -0.2157932f,
  -0.2847573f,     0.2090769f,     0.014468845f,   -0.16611336f,
  0.10388371f,     -0.79244065f,   -4.8571606f,    0.017636769f,
  0.037248142f,    0.018435389f,   -0.2943471f,    -4.8615584f,
  0.12745026f,     0.010718354f,   0.0053488077f,  -0.00044471418f,
  -0.333191f,      0.21201539f,    -0.14727479f,   -0.13549785f,
  0.09994359f,     -0.071138285f,  0.067634f,      0.2725245f,
  -0.17967133f,    0.11058825f,    -0.1351391f,    0.081771284f,
  0.07452279f,     0.043584704f,   0.36902422f,    0.08468865f,
  -0.82469517f,    0.53323233f,    -1.038401f,     -0.042906053f,
  -2.91334f,       0.029663503f,   -0.0107259555f, -0.002536061f,
  0.010737266f,    -0.20330447f,   0.25430438f,    -0.015497041f,
  0.12360325f,     0.21438849f,    0.38106441f,    0.33135423f,
  0.31070217f,     -0.16453259f,   3.4140615f,     -0.033432096f,
  0.016028957f,    -0.064208135f,  -1.1401294f,    0.4569578f,
  0.2047489f,      -2.0773685f,    -2.4952111f,    -1.6513844f,
  -2.4816976f,     -0.26815805f,   -0.36036542f,   0.30352798f,
  -0.27518964f,    0.3713238f,     0.21462879f,    0.3079919f,
  -0.5961505f,     0.35266203f,    0.041545365f,   0.035647377f,
  0.006781626f,    -0.11603701f,   0.04116425f,    -0.13783954f,
  -0.381521f,      0.28278124f,    -0.26543283f,   0.18415657f,
  -0.090644866f,   -0.11439961f,   0.08373762f,    -2.498674f,
  -3.966151f,      -0.11193319f,   0.15613016f,    -0.97848356f,
  1.2725382f,      -0.102177136f,  0.090314634f,   0.14120027f,
  -0.006796432f,   -0.023861736f,  0.2817603f,     -0.050674416f,
  0.07497831f,     -0.026339235f,  -0.008485854f,  -0.09715946f,
  -0.010232958f,   0.014180077f,   0.037607543f,   -4.9066343f,
  0.022776008f,    0.09821895f,    -0.29100755f,   0.72851497f,
  0.05256157f,     0.072089694f,   -0.058378763f,  -0.2654913f,
  0.25306764f,     0.26845178f,    -0.021249266f,  -0.043541983f,
  -2.3304145f,     -3.154928f,     -0.016314f,     -0.306503f,
  0.21908103f,     -0.301121f,     0.21711525f,    -0.091303974f,
  0.3137637f,      -1.4054282f,    1.6757832f,     0.077878505f,
  0.06091834f,     0.052376974f,   -2.398441f,     -2.0468824f,
  0.17047426f,     -0.43851f,      0.2974417f,     -0.40483263f,
  0.2731546f,      0.12410551f,    -0.6150043f,    0.36664295f,
  -0.57602656f,    0.35799003f,    -0.067032695f,  -0.122513235f,
  -1.7878169f,     0.831042f,      -0.81806475f,   0.30066776f,
  0.023261387f,    -0.10843547f,   1.3362634f,     -0.25138888f,
  -0.026099592f,   -1.1679546f,    0.016763719f,   -0.8777595f,
  -0.33049282f,    -0.11083185f,   0.7637424f,     0.015832251f,
  0.677062f,       -0.14689617f,   -0.21089894f,   0.019435842f,
  -3.6328158f,     0.059930354f,   0.07800996f,    -0.026678804f,
  -0.0009843105f,  0.17847976f,    -0.21135542f,   -0.00497032f,
  -0.25383595f,    -0.0058069834f, -0.30098954f,   0.27424023f,
  -0.00014383697f, -0.005778352f,  0.0014398008f,  -0.6358562f,
  -0.05443111f,    0.31966755f,    0.004086844f,   0.006961986f,
  0.00029477914f,  0.005173244f,   0.002889068f,   -1.2459273f,
  0.84056664f,     0.23441574f,    -2.3046794f,    1.4883201f,
  -2.4296863f,     1.5962776f,     -0.064104676f,  -2.1632023f,
  1.3632796f,      -2.1796873f,    1.3376532f,     0.27706102f,
  0.19644228f,     0.11544945f,    -4.109384f,     0.27427298f,
  0.3055321f,      -0.12564078f,   0.061709814f,   0.20246314f,
  -0.03341469f,    0.054278817f,   -0.14115797f,   -0.054807883f,
  0.005465295f,    -0.12024066f,   -0.017515143f,  0.07257758f,
  0.07731127f,     -0.12865491f,   0.22106388f,    0.32353845f,
  -0.17386141f,    0.9496388f,     0.23141916f,    0.066179916f,
  2.1952658f,      -0.18337674f,   0.014677545f,   0.04729435f,
  0.014424475f,    -0.6619547f,    -0.16750382f,   -0.24853228f,
  -0.11488141f,    -0.1450528f,    0.4013346f,     -0.053983364f,
  0.45261523f,     -0.33308056f,   0.08646926f,    -0.22544847f,
  0.37759557f,     1.3093315f,     -1.0299766f,    1.7491746f,
  -0.06714464f,    0.06315626f,    0.1518183f,     -0.007447709f,
  -0.044764493f,   -0.24436966f,   0.21629131f,    -0.113248974f,
  -0.01851026f,    0.05460357f,    -0.088994354f,  -0.026299465f,
  0.20443907f,     0.013009965f,   0.13799399f,    -2.5519505f,
  -0.025182929f,   -0.02762331f,   -0.112529255f,  -0.0066457363f,
  -1.0819062f,     0.19946119f,    -0.020163666f,  -0.52931195f,
  0.0109432535f,   -0.66859347f,   -0.12468687f,   0.008577568f,
  -0.5116417f,     -0.005861878f,  -0.90027297f,   0.22732565f,
  -0.30274126f,    -3.3308759f,    0.05081942f,    0.029107302f,
  -0.2582506f,     -0.30760413f,   -0.2773695f,    -1.095788f,
  0.1266177f,      -0.34554464f,   0.31190515f,    -0.62180877f,
  0.51210624f,     0.3190677f,     -0.046733055f,  -0.03132166f,
  -0.23972799f,    1.1219232f,     -0.035273552f,  -0.18096654f,
  -1.0855472f,     1.7744817f,     -0.004993664f,  0.0057461504f,
  0.012780723f,    -2.8198164f,    -1.8602242f,    0.30729768f,
  -0.610396f,      0.3014482f,     -0.6396756f,    0.26074415f,
  -0.11467697f,    -0.705542f,     0.14732175f,    -0.52814233f,
  0.15971433f,     0.12893304f,    0.2687373f,     -0.22140756f,
  -2.2109678f,     -0.60680956f,   -2.2795682f,    0.60742164f,
  -0.035938773f,   -0.86475766f,   0.082992196f,   0.05192759f,
  0.113033794f,    -0.049669363f,  0.27110147f,    -0.28335965f,
  -0.0019883336f,  -0.22206998f,   -0.03378103f,   0.20480406f,
  -0.15735796f,    -0.23016156f,   -0.5709462f,    1.4101609f,
  -0.12326362f,    -0.048680056f,  -0.14596505f,   -2.1640537f,
  -2.2653985f,     -0.21010734f,   -0.46601927f,   0.3296773f,
  -0.5403536f,     0.29407242f,    0.28039292f,    -0.62393713f,
  0.3307968f,      -0.54748696f,   0.44236898f,    0.2962338f,
  0.24722573f,     -0.023871241f,  1.0127735f,     0.2475817f,
  -0.07766077f,    -0.07197961f,   -1.04681f,      -2.7433078f,
  -0.19426101f,    -1.011374f,     0.86943555f,    -1.2158859f,
  1.0799487f,      0.08252874f,    -0.97746724f,   0.53492785f,
  -0.7615362f,     1.0273237f,     0.2816582f,     0.12715924f,
  -0.27831885f,    2.789061f,      0.011465421f,   0.023299377f,
  0.024151094f,    0.10130243f,    0.9827819f,     -0.25836945f,
  -0.21662797f,    -0.024054507f,  -0.30761635f,   0.28861457f,
  -0.117885396f,   -3.17747f,      -7.5204916f,    -0.08960241f,
  1.4101363f,      0.25999424f,    0.2788582f,     -0.040802624f,
  -0.5211178f,     -0.20842999f,   -0.95129913f,   -0.049696416f,
  -0.03970704f,    0.04789897f,    -0.29048812f,   -0.042524815f,
  -0.91909593f,    -0.122515574f,  -0.8003034f,    0.23058453f,
  -0.03675625f,    -0.35539994f,   0.013384509f,   -2.3936186f,
  -0.03128922f,    -0.3399613f,    -1.6996671f,    0.7639784f,
  1.074268f,       1.771555f,      0.86524934f,    -0.03160822f,
  0.5017583f,      -0.06270039f,   -0.12387829f,   -0.50282663f,
  -0.8330461f,     0.039396018f,   -0.31917033f,   -0.1895344f,
  1.0662872f,      0.05778317f,    0.56476456f,    0.11968857f,
  -0.30282313f,    -0.22113727f,   1.9654665f,     -0.0039172485f,
  0.002466545f,    -0.0007895674f, 0.06761794f,    0.5566316f,
  0.1663169f,      -0.14700407f,   0.017040065f,   -0.19817172f,
  0.21628867f,     0.09539577f,    -2.1809747f,    -5.2465057f,
  -0.05690409f,    0.95497316f,    -0.11998135f,   -0.20177026f,
  -4.897363f,      -0.19914453f,   0.13566728f,    0.37208918f,
  -0.103124194f,   0.082367875f,   -0.111583024f,  0.2837238f,
